2024-06-21 11:30:06

Description 
===========





IV Curve
========

Abbreviation: BC = Bias Current (muA), BV = Bias Voltage (V), C = Counts, IT = Integration Time (ms)
Detector number is attached to abbreviation, e.g. BV3 is the bias voltage of the third detector.

BC	BV1	BV2	BV3	BV4	BV5	BV6	BV7	BV8	C1	C2	C3	C4	C5	C6	C7	C8	IT

0.0	0.002	-0.001	0.002	0.001	-0.002	-0.002	0.001	0.001	1	1	1	1	1	1	1	1	200.0
0.1	-0.001	-0.001	-0.001	0.001	-0.001	0.001	0.001	-0.001	0	0	0	0	0	0	0	0	200.0
0.2	0.002	0.002	-0.001	0.001	-0.001	-0.001	0.001	-0.001	0	0	0	0	0	0	0	0	200.0
0.3	-0.001	0.002	-0.001	-0.002	-0.002	-0.002	0.001	-0.002	0	0	0	0	0	0	0	0	200.0
0.4	-0.001	-0.001	-0.001	-0.002	0.002	0.0	-0.0	0.002	0	0	0	0	0	0	0	0	200.0
0.5	-0.001	-0.001	0.002	-0.002	0.002	0.0	0.002	0.0	0	0	0	0	0	0	0	0	200.0
0.6	0.0	0.002	-0.0	-0.001	0.001	-0.001	0.001	-0.001	0	0	0	0	0	0	0	0	200.0
0.7	-0.001	0.002	0.002	-0.002	-0.001	-0.001	-0.001	-0.001	0	0	0	0	0	0	0	0	200.0
0.8	-0.001	-0.001	0.002	0.001	-0.001	-0.001	0.001	-0.001	0	0	0	0	0	0	0	0	200.0
0.9	-0.001	-0.001	0.002	0.001	-0.001	0.001	0.001	0.001	0	0	0	0	0	0	0	0	200.0
1.0	-0.001	-0.001	0.002	0.001	-0.0	0.002	-0.0	0.002	0	0	0	0	0	0	0	0	200.0
1.1	0.002	-0.001	-0.001	-0.002	0.002	0.002	0.002	0.0	0	0	0	0	0	0	0	0	200.0
1.2	0.0	0.0	-0.0	0.001	-0.001	-0.001	-0.001	-0.001	0	0	0	0	0	0	0	0	200.0
1.3	0.0	0.0	-0.0	-0.001	-0.001	-0.003	0.001	-0.001	0	0	0	0	0	0	0	0	200.0
1.4	-0.001	0.002	-0.001	-0.002	-0.001	0.001	0.001	-0.001	0	0	0	0	0	0	0	0	200.0
1.5	-0.001	0.002	-0.001	-0.002	0.001	-0.002	-0.002	-0.002	0	0	0	0	0	0	0	0	200.0
1.6	-0.001	-0.001	0.002	-0.002	-0.001	-0.001	-0.001	-0.001	0	0	0	0	0	0	0	0	200.0
1.7	-0.001	-0.001	0.002	-0.002	-0.001	0.001	0.001	-0.001	0	0	0	0	0	0	0	0	200.0
1.8	0.002	0.0	0.002	-0.001	-0.001	0.001	0.001	-0.001	0	0	0	0	0	0	0	0	200.0
1.9	0.002	0.002	-0.0	-0.001	0.001	0.001	0.001	-0.001	0	0	0	0	0	0	0	0	200.0
2.0	0.0	0.0	-0.0	-0.001	-0.001	-0.001	-0.001	-0.001	0	0	0	0	0	0	0	0	200.0
2.1	-0.001	-0.001	-0.001	-0.002	-0.002	-0.002	0.001	-0.002	0	0	0	0	0	0	0	0	200.0
2.2	0.002	0.002	-0.001	-0.002	-0.001	-0.001	-0.001	-0.001	0	0	0	0	0	0	0	0	200.0
2.3	-0.001	-0.001	0.002	-0.002	-0.001	-0.001	-0.001	-0.001	0	0	0	0	0	0	0	0	200.0
2.4	0.002	0.0	-0.0	0.001	0.001	-0.004	-0.002	-0.002	0	0	0	0	0	0	0	0	200.0
2.5	0.002	-0.001	0.002	-0.002	0.001	-0.003	-0.001	-0.001	0	0	0	0	0	0	0	0	200.0
2.6	0.0	0.0	-0.0	-0.001	0.001	-0.001	0.001	-0.001	0	0	0	0	0	0	0	0	200.0
2.7	0.002	0.002	-0.0	-0.001	-0.001	-0.001	-0.001	0.001	0	0	0	0	0	0	0	0	200.0
2.8	0.002	0.0	-0.0	-0.001	-0.001	0.001	0.001	-0.001	0	0	0	0	0	0	0	0	200.0
2.9	0.0	0.002	-0.0	-0.001	-0.001	-0.001	0.001	-0.001	0	0	0	0	0	0	0	0	200.0
3.0	0.0	0.0	-0.0	-0.001	-0.0	0.0	-0.0	0.005	0	0	0	0	0	0	0	0	200.0
3.1	0.0	0.002	0.002	-0.001	-0.001	0.001	0.001	-0.001	0	0	0	0	0	0	0	0	200.0
3.2	-0.001	0.0	-0.0	-0.001	0.001	-0.003	0.001	0.001	0	0	0	0	0	0	0	0	200.0
3.3	-0.001	-0.001	-0.001	-0.002	0.001	-0.001	-0.001	0.001	0	0	0	0	0	0	0	0	200.0
3.4	-0.001	-0.001	0.002	0.001	0.001	0.001	-0.001	0.001	0	0	0	0	0	0	0	0	200.0
3.5	-0.001	-0.001	0.002	-0.002	0.001	-0.002	-0.002	-0.002	0	0	0	0	0	0	0	0	200.0
3.6	-0.001	-0.001	0.002	-0.002	0.001	0.001	0.004	0.001	0	0	0	0	0	0	0	0	200.0
3.7	0.0	0.002	-0.0	0.001	0.001	-0.001	-0.001	-0.001	0	0	0	0	0	0	0	0	200.0
3.8	0.0	0.0	0.002	-0.001	-0.001	-0.003	-0.001	-0.001	0	0	0	0	0	0	0	0	200.0
3.9	0.002	0.0	-0.0	-0.001	-0.001	0.001	-0.003	-0.001	0	0	0	0	0	0	0	0	200.0
4.0	0.002	-0.001	0.002	-0.002	-0.001	0.001	-0.001	-0.001	0	0	0	0	0	0	0	0	200.0
4.1	0.002	0.0	0.002	0.004	0.001	-0.001	0.001	-0.001	0	0	0	0	0	0	0	0	200.0
4.2	0.0	0.0	0.002	-0.002	0.005	0.002	-0.0	0.002	0	0	0	0	0	0	0	0	200.0
4.3	-0.001	0.0	-0.001	-0.002	0.002	0.0	0.002	0.0	0	0	0	0	0	0	0	0	200.0
4.4	0.002	0.0	0.002	-0.001	-0.001	-0.003	0.001	-0.001	0	0	0	0	0	0	0	0	200.0
4.5	0.002	0.0	-0.0	-0.001	0.001	0.001	-0.002	-0.002	0	0	0	0	0	0	0	0	200.0
4.6	0.0	0.0	-0.0	-0.001	-0.0	0.0	0.002	0.0	0	0	0	0	0	0	0	0	200.0
4.7	-0.001	-0.001	-0.001	-0.002	0.001	0.001	0.001	-0.001	0	0	0	0	0	0	0	0	200.0
4.8	0.002	-0.001	-0.001	0.001	-0.001	0.001	0.001	0.001	0	0	0	0	0	0	0	0	200.0
4.9	-0.001	-0.001	-0.001	-0.002	-0.001	-0.001	-0.001	-0.001	0	0	0	0	0	0	0	0	200.0
5.0	-0.001	-0.001	-0.001	-0.002	-0.001	-0.001	-0.001	0.001	0	0	0	0	0	0	0	0	200.0
5.1	-0.001	-0.001	-0.001	-0.002	0.001	-0.001	-0.001	-0.001	0	0	0	0	0	0	0	0	200.0
5.2	-0.001	-0.001	-0.001	-0.002	0.001	0.001	0.001	-0.001	0	0	0	0	0	0	0	0	200.0
5.3	-0.001	-0.001	-0.001	-0.002	-0.001	-0.001	-0.001	0.001	0	0	0	0	0	0	0	0	200.0
5.4	-0.001	-0.001	-0.001	-0.002	-0.001	0.001	-0.003	-0.001	0	0	0	0	0	0	0	0	200.0
5.5	0.002	-0.001	-0.001	-0.002	0.004	-0.001	-0.001	-0.001	0	0	0	0	0	0	0	0	200.0
5.6	0.002	-0.001	-0.001	-0.002	-0.001	0.001	0.001	0.001	0	0	0	0	0	0	0	0	200.0
5.7	0.0	0.0	-0.0	-0.002	-0.002	-0.002	-0.002	0.001	0	0	0	0	0	0	0	0	200.0
5.8	-0.001	0.002	-0.001	-0.002	-0.001	-0.001	0.001	-0.001	0	0	0	0	0	0	0	0	200.0
5.9	0.0	0.002	0.002	-0.001	0.001	0.001	0.001	-0.001	0	0	0	0	0	0	0	0	200.0
6.0	-0.001	-0.001	-0.001	-0.002	-0.001	0.001	-0.001	0.001	0	0	0	0	0	0	0	0	200.0
6.1	0.002	-0.001	-0.001	-0.002	0.001	-0.001	-0.001	0.001	0	0	0	0	0	0	0	0	200.0
6.2	-0.001	0.001	0.001	0.0	-0.001	-0.001	0.001	0.001	0	0	0	0	0	0	0	0	200.0
6.3	0.002	-0.001	-0.001	-0.002	-0.002	0.003	-0.002	0.001	0	0	0	0	0	0	0	0	200.0
6.4	-0.001	-0.001	-0.001	-0.002	0.002	0.0	-0.0	0.0	0	0	0	0	0	0	0	0	200.0
6.5	0.002	0.0	0.002	-0.001	-0.001	-0.001	-0.001	0.001	0	0	0	0	0	0	0	0	200.0
6.6	0.0	0.002	-0.0	0.001	-0.001	-0.001	-0.001	-0.001	0	0	0	0	0	0	0	0	200.0
6.7	-0.001	-0.001	0.002	-0.002	-0.001	-0.001	-0.001	0.001	0	0	0	0	0	0	0	0	200.0
6.8	-0.001	0.002	-0.001	-0.002	0.001	-0.001	-0.001	0.001	0	0	0	0	0	0	0	0	200.0
6.9	0.002	0.0	-0.0	-0.001	0.001	0.001	0.001	-0.002	0	0	0	0	0	0	0	0	200.0
7.0	0.002	0.002	0.002	-0.001	-0.001	0.001	0.001	0.001	0	0	0	0	0	0	0	0	200.0
7.1	-0.001	-0.001	0.002	-0.002	0.001	0.001	0.001	-0.001	0	0	0	0	0	0	0	0	200.0
7.2	-0.001	-0.001	-0.001	-0.002	-0.001	-0.001	-0.001	0.001	0	0	0	0	0	0	0	0	200.0
7.3	0.002	-0.001	-0.001	-0.002	0.001	-0.002	-0.002	-0.002	0	0	0	0	0	0	0	0	200.0
7.4	0.0	0.0	0.002	0.001	0.001	-0.001	-0.001	-0.001	0	0	0	0	0	0	0	0	200.0
7.5	0.002	0.002	0.002	0.001	0.001	0.001	-0.001	-0.001	0	0	0	0	0	0	0	0	200.0
7.6	-0.001	-0.001	-0.001	0.001	0.001	-0.001	0.001	0.001	0	0	0	0	0	0	0	0	200.0
7.7	0.0	0.0	0.002	-0.001	-0.003	-0.001	-0.001	0.001	0	0	0	0	0	0	0	0	200.0
7.8	0.0	0.0	-0.0	-0.001	0.001	0.001	0.001	-0.004	0	0	0	0	0	0	0	0	200.0
7.9	-0.001	0.001	-0.001	-0.002	-0.001	0.001	0.001	-0.001	0	0	0	0	0	0	0	0	200.0
8.0	0.0	0.002	0.002	-0.001	0.001	0.001	-0.001	-0.003	0	0	0	0	0	0	0	0	200.0
8.1	0.002	0.0	0.002	-0.001	0.001	0.001	0.001	0.001	0	0	0	0	0	0	0	0	200.0
8.2	-0.001	0.002	-0.001	-0.002	-0.001	-0.001	0.001	0.001	0	0	0	0	0	0	0	0	200.0
8.3	-0.001	-0.001	-0.001	-0.002	-0.001	-0.001	-0.001	0.001	0	0	0	0	0	0	0	0	200.0
8.4	0.0	0.0	0.002	-0.001	0.002	0.002	0.002	0.0	0	0	0	0	0	0	0	0	200.0
8.5	0.0	0.0	0.002	-0.001	-0.004	0.001	-0.002	-0.004	0	0	0	0	0	0	0	0	200.0
8.6	0.002	0.002	-0.0	-0.001	-0.002	-0.002	-0.004	0.001	0	0	0	0	0	0	0	0	200.0
8.7	-0.001	-0.001	-0.001	-0.002	-0.001	-0.001	-0.001	-0.001	0	0	0	0	0	0	0	0	200.0
8.8	-0.001	-0.001	0.002	-0.002	-0.0	0.002	-0.0	0.002	0	0	0	0	0	0	0	0	200.0
8.9	-0.001	0.002	-0.001	-0.002	0.001	-0.001	0.001	-0.001	0	0	0	0	0	0	0	0	200.0
9.0	-0.001	-0.001	0.002	-0.002	0.001	-0.003	0.001	0.001	0	0	0	0	0	0	0	0	200.0
9.1	0.002	0.002	-0.0	-0.001	0.002	0.005	0.002	0.0	0	0	0	0	0	0	0	0	200.0
9.2	0.002	0.0	0.002	0.001	0.001	0.001	-0.001	0.001	0	0	0	0	0	0	0	0	200.0
9.3	-0.001	-0.001	-0.001	-0.002	0.001	0.001	0.001	-0.003	0	0	0	0	0	0	0	0	200.0
9.4	0.002	0.0	-0.0	-0.001	-0.001	0.001	0.001	0.001	0	0	0	0	0	0	0	0	200.0
9.5	0.002	0.0	0.002	-0.001	0.001	0.001	0.001	0.001	0	0	0	0	0	0	0	0	200.0
9.6	0.002	-0.001	-0.001	-0.002	0.001	0.001	-0.001	-0.001	0	0	0	0	0	0	0	0	200.0
9.7	0.0	0.002	-0.0	-0.001	-0.002	-0.002	-0.002	-0.002	0	0	0	0	0	0	0	0	200.0
9.8	0.0	0.0	0.002	0.001	0.002	0.0	0.002	0.005	0	0	0	0	0	0	0	0	200.0
9.9	0.002	0.0	-0.0	-0.001	-0.001	-0.001	0.001	-0.001	1	0	0	0	0	0	0	0	200.0
10.0	0.0	-0.001	0.002	-0.001	-0.0	0.0	0.002	0.002	0	0	0	0	0	0	0	0	200.0
10.1	0.002	-0.001	-0.001	0.001	-0.001	0.001	0.001	-0.001	7	0	0	0	0	0	0	0	200.0
10.2	0.0	0.002	-0.0	0.001	-0.001	-0.001	0.001	-0.001	4	0	0	0	0	0	0	0	200.0
10.3	0.0	0.0	-0.0	-0.001	0.001	-0.002	-0.002	-0.002	4	0	0	0	0	0	0	0	200.0
10.4	0.002	0.0	0.002	-0.001	-0.001	-0.001	-0.001	0.001	10	0	0	0	0	0	0	0	200.0
10.5	-0.001	0.002	-0.001	-0.002	0.001	-0.001	-0.001	-0.003	11	0	0	0	0	0	0	0	200.0
10.6	-0.001	0.002	-0.001	-0.002	-0.001	-0.001	0.001	-0.001	19	0	0	0	0	0	0	0	200.0
10.7	0.0	0.0	-0.0	-0.002	0.001	-0.001	0.001	-0.001	30	0	0	0	0	0	0	0	200.0
10.8	-0.001	-0.001	-0.001	-0.002	0.001	0.001	0.001	0.001	30	0	0	0	0	0	0	0	200.0
10.9	-0.001	-0.001	-0.001	-0.002	0.001	-0.001	-0.001	-0.001	41	0	0	0	0	0	0	0	200.0
11.0	0.0	0.0	0.005	-0.001	0.001	0.001	0.001	0.001	58	0	0	0	0	0	0	0	200.0
11.1	0.0	0.0	-0.0	-0.002	-0.0	0.002	-0.0	0.002	84	0	0	0	0	0	0	0	200.0
11.2	-0.001	-0.001	0.002	0.001	0.001	-0.002	0.001	-0.002	108	0	0	0	0	0	0	0	200.0
11.3	-0.001	-0.001	0.002	-0.002	0.001	-0.002	0.001	-0.002	155	0	0	0	0	0	0	0	200.0
11.4	-0.001	-0.001	0.002	-0.002	0.001	0.001	0.001	-0.001	203	0	0	0	0	0	0	0	200.0
11.5	0.0	0.002	0.002	-0.001	-0.001	-0.001	-0.001	-0.001	260	0	0	0	0	0	0	0	200.0
11.6	-0.001	-0.001	0.002	-0.002	0.001	-0.001	-0.001	-0.001	307	0	0	0	0	0	0	0	200.0
11.7	-0.001	-0.001	0.002	0.001	0.001	-0.002	-0.002	0.001	417	0	0	0	0	0	0	0	200.0
11.8	-0.001	-0.001	-0.001	0.001	-0.001	-0.001	0.001	0.001	562	0	0	0	0	0	0	0	200.0
11.9	0.0	0.0	0.002	-0.001	0.004	0.001	-0.001	-0.001	708	0	0	0	0	0	0	0	200.0
12.0	-0.001	-0.001	0.002	-0.002	-0.001	0.001	-0.001	0.001	984	0	0	0	0	0	0	0	200.0
12.1	-0.001	-0.001	0.001	0.0	0.001	0.001	0.001	-0.001	1211	0	0	0	0	0	0	0	200.0
12.2	0.0	0.0	-0.0	-0.001	-0.001	-0.001	0.001	0.001	1507	0	0	0	0	0	0	0	200.0
12.3	-0.001	0.001	-0.001	-0.002	0.001	-0.001	-0.003	0.001	1877	0	0	0	0	0	0	0	200.0
12.4	-0.001	0.002	-0.001	-0.002	-0.001	-0.001	-0.001	-0.001	2385	0	0	0	0	0	0	0	200.0
12.5	-0.001	-0.001	-0.001	-0.002	-0.002	-0.002	0.001	-0.002	2940	0	0	0	0	0	0	0	200.0
12.6	-0.001	-0.001	-0.001	-0.002	0.001	-0.002	0.001	0.001	3640	0	0	0	0	0	0	0	200.0
12.7	-0.001	-0.001	-0.001	-0.002	0.001	-0.001	-0.001	0.001	4430	0	0	0	0	0	0	0	200.0
12.8	-0.001	-0.001	0.002	0.001	0.002	0.0	0.002	0.0	5383	0	0	0	0	0	0	0	200.0
12.9	-0.001	-0.001	-0.001	-0.002	0.001	0.001	0.001	-0.001	6638	0	0	0	0	0	0	0	200.0
13.0	0.0	0.0	0.002	-0.001	-0.001	-0.003	-0.001	-0.001	7978	0	0	0	0	0	0	0	200.0
13.1	-0.001	0.002	0.002	-0.002	0.001	-0.003	0.001	0.001	9500	0	0	0	0	0	0	0	200.0
13.2	-0.001	0.002	0.002	-0.002	-0.001	0.001	0.001	-0.001	11408	0	0	0	0	0	0	0	200.0
13.3	-0.001	-0.001	0.002	-0.002	0.001	-0.001	0.001	-0.001	13348	0	0	0	0	0	0	0	200.0
13.4	0.002	0.002	0.002	-0.002	0.001	-0.003	0.001	-0.001	15818	0	0	0	0	0	0	0	200.0
13.5	0.0	0.002	-0.0	0.001	0.001	-0.002	-0.002	-0.002	19027	0	0	0	0	0	0	0	200.0
13.6	0.0	0.0	0.005	-0.001	0.001	-0.001	-0.001	-0.001	21943	0	0	0	0	0	0	0	200.0
13.7	0.002	-0.001	-0.001	-0.002	0.001	0.001	0.001	0.001	25680	0	0	0	0	0	0	0	200.0
13.8	0.002	-0.001	-0.001	-0.002	-0.001	0.001	-0.001	0.001	29684	0	0	0	0	0	0	0	200.0
13.9	0.0	0.0	0.002	0.001	0.001	-0.001	-0.001	-0.001	34462	0	0	0	0	0	0	0	200.0
14.0	-0.001	-0.001	0.002	-0.002	0.001	-0.001	0.001	-0.001	39094	0	0	0	0	0	0	0	200.0
14.1	-0.001	0.002	0.002	-0.002	-0.001	-0.003	-0.001	0.001	45158	0	0	0	0	0	0	0	200.0
14.2	-0.001	-0.001	-0.001	-0.002	0.002	0.002	0.002	0.0	50675	0	0	0	0	0	0	0	200.0
14.3	-0.001	-0.001	-0.001	-0.002	-0.003	0.0	0.002	0.002	57851	0	0	0	0	0	0	0	200.0
14.4	-0.001	-0.001	-0.001	0.001	-0.001	-0.001	-0.001	0.001	65224	0	0	0	0	0	0	0	200.0
14.5	-0.001	0.0	-0.001	-0.002	0.001	-0.001	0.001	-0.001	73022	0	0	0	0	0	0	0	200.0
14.6	0.0	0.0	-0.0	-0.001	-0.001	-0.001	0.001	0.001	81903	0	0	0	0	0	0	0	200.0
14.7	0.002	0.0	0.002	-0.001	-0.001	0.001	-0.001	-0.001	91391	0	0	0	0	0	0	0	200.0
14.8	-0.001	-0.001	0.002	-0.002	0.001	0.001	0.001	-0.001	101366	0	0	0	0	0	0	0	200.0
14.9	-0.001	0.002	0.002	-0.002	-0.0	0.0	0.002	0.0	112612	0	0	0	0	0	0	0	200.0
15.0	-0.001	0.002	-0.001	-0.002	-0.001	-0.001	0.001	0.001	122803	0	0	0	0	0	0	0	200.0
15.1	0.002	0.002	-0.001	0.001	0.001	0.001	0.001	0.001	135996	0	0	0	0	0	0	0	200.0
15.2	-0.001	0.001	-0.001	-0.002	-0.003	-0.001	0.004	0.001	148347	0	0	0	0	0	0	0	200.0
15.3	0.002	0.0	0.002	-0.001	-0.002	-0.002	0.001	-0.002	162013	0	0	0	0	0	0	0	200.0
15.4	-0.001	-0.001	0.002	0.001	-0.001	0.001	-0.003	0.004	174957	0	0	0	0	0	0	0	200.0
15.5	-0.001	-0.001	-0.001	-0.002	-0.001	-0.001	0.001	0.001	188546	0	0	0	0	1	0	0	200.0
15.6	0.0	0.002	0.002	-0.001	-0.003	0.001	0.001	0.001	203537	0	0	0	0	0	0	0	200.0
15.7	0.002	-0.001	0.002	-0.002	-0.001	0.001	0.001	-0.003	218908	0	0	0	0	0	0	0	200.0
15.8	0.0	0.002	0.002	-0.001	0.001	-0.001	-0.001	-0.003	232372	0	0	0	0	0	0	0	200.0
15.9	0.0	0.0	0.002	-0.001	0.002	0.0	0.002	0.002	248859	0	0	0	0	0	0	0	200.0
16.0	0.002	0.002	0.002	-0.002	-0.0	0.0	-0.0	0.002	264956	0	0	0	0	0	0	0	200.0
16.1	0.002	0.002	-0.001	-0.002	-0.001	-0.001	0.001	0.001	279730	0	0	0	0	0	0	0	200.0
16.2	0.0	0.002	-0.0	-0.001	-0.001	0.001	0.001	0.001	295711	0	0	0	0	0	0	0	200.0
16.3	0.0	0.002	-0.0	-0.001	0.001	-0.002	-0.002	0.001	310005	0	0	0	0	0	0	0	200.0
16.4	0.0	0.0	-0.0	0.001	-0.001	-0.001	0.001	-0.001	326858	0	0	0	0	0	0	0	200.0
16.5	-0.001	0.002	0.002	-0.002	-0.0	0.002	-0.0	0.002	343211	0	0	0	0	0	0	0	200.0
16.6	0.002	0.002	-0.0	0.001	-0.001	-0.001	-0.001	-0.003	357707	0	0	0	0	1	0	0	200.0
16.7	0.001	0.001	-0.001	-0.002	0.001	0.001	-0.002	-0.002	372139	0	0	0	0	0	0	0	200.0
16.8	0.0	0.002	0.002	-0.001	-0.001	0.001	0.001	0.001	387923	0	0	0	0	0	0	0	200.0
16.9	-0.001	-0.001	-0.001	-0.002	0.001	-0.001	0.001	-0.001	400003	0	0	0	0	0	0	0	200.0
17.0	0.002	0.0	0.002	-0.001	0.002	0.002	-0.0	0.002	413056	0	0	0	0	0	0	0	200.0
17.1	-0.001	-0.001	-0.001	-0.002	0.001	-0.001	0.001	-0.001	426097	0	0	0	0	0	0	0	200.0
17.2	0.002	-0.001	0.004	0.001	-0.001	-0.001	0.001	0.001	439985	0	0	0	0	0	0	0	200.0
17.3	0.0	0.0	0.002	-0.001	0.001	0.001	-0.002	-0.002	451678	0	0	0	0	1	0	0	200.0
17.4	0.002	0.002	0.002	-0.001	0.001	-0.003	-0.001	0.001	465292	0	0	0	0	0	0	0	200.0
17.5	0.0	0.002	0.002	-0.001	0.001	-0.001	0.001	-0.001	477188	0	0	0	0	0	0	0	200.0
17.6	0.002	0.0	-0.0	-0.002	0.001	0.001	-0.001	-0.001	487180	0	0	0	0	0	0	0	200.0
17.7	-0.001	-0.001	-0.001	-0.002	0.002	0.002	0.002	0.0	498679	0	0	0	0	1	0	0	200.0
17.8	-0.001	-0.001	0.002	0.001	0.002	0.002	-0.0	0.0	509481	0	0	0	0	0	0	0	200.0
17.9	0.002	0.002	-0.001	-0.002	0.002	0.0	0.002	0.002	519482	0	0	0	0	0	0	0	200.0
18.0	-0.001	-0.001	-0.001	-0.002	0.001	-0.002	0.001	-0.002	530663	0	0	0	1	0	0	0	200.0
18.1	0.0	0.0	-0.0	-0.001	0.001	0.001	0.001	-0.001	539580	0	0	0	0	0	0	0	200.0
18.2	-0.001	-0.001	-0.001	-0.002	-0.001	-0.001	0.001	0.001	547782	0	0	0	0	2	0	0	200.0
18.3	-0.001	0.002	-0.001	-0.002	-0.002	0.001	0.001	-0.002	557316	0	0	0	1	1	0	0	200.0
18.4	-0.001	-0.001	-0.001	0.001	-0.001	-0.001	-0.001	-0.001	563933	0	0	0	0	0	0	0	200.0
18.5	0.002	-0.001	0.002	0.001	0.001	0.001	-0.001	-0.001	573340	0	0	0	0	0	0	0	200.0
18.6	0.0	0.0	0.002	-0.001	-0.001	-0.001	-0.001	0.001	580990	0	0	0	1	1	0	0	200.0
18.7	-0.001	-0.001	-0.001	-0.002	0.001	-0.003	0.001	-0.001	588818	0	0	0	0	1	0	0	200.0
18.8	0.002	-0.001	0.002	-0.002	0.002	0.0	-0.0	0.0	594198	0	0	0	1	0	0	0	200.0
18.9	0.002	-0.001	0.002	-0.002	-0.001	-0.003	-0.001	-0.001	601538	0	0	0	0	1	0	0	200.0
19.0	0.0	0.0	-0.0	-0.001	-0.0	0.0	0.002	0.0	607671	0	0	0	0	2	0	0	200.0
19.1	0.0	0.002	-0.0	0.001	-0.001	0.001	0.001	-0.001	613366	0	0	0	1	1	0	0	200.0
19.2	0.002	-0.001	0.002	-0.002	-0.001	-0.001	-0.003	-0.001	618220	0	0	0	1	3	0	0	200.0
19.3	-0.001	-0.001	-0.001	-0.002	0.001	-0.001	-0.001	-0.001	624311	0	0	0	1	6	0	0	200.0
19.4	0.0	0.0	-0.0	-0.001	-0.001	-0.001	0.001	-0.001	628844	0	0	0	2	9	0	0	200.0
19.5	0.0	0.0	0.002	-0.001	-0.001	-0.001	0.001	-0.001	633650	0	0	0	1	9	0	0	200.0
19.6	0.0	0.0	0.002	-0.001	-0.002	-0.002	-0.002	-0.002	638289	0	0	0	2	19	0	0	200.0
19.7	-0.001	-0.001	-0.001	-0.002	-0.001	0.001	0.004	-0.001	642101	0	0	0	2	35	0	0	200.0
19.8	-0.001	0.002	-0.001	-0.002	-0.001	-0.001	0.001	-0.001	646816	0	0	0	2	36	0	0	200.0
19.9	-0.001	0.002	-0.001	-0.002	-0.001	-0.001	0.001	0.001	650373	0	0	0	1	157	0	0	200.0
20.0	0.0	0.0	-0.0	0.001	-0.0	0.002	0.002	0.002	653680	0	0	0	0	148	0	0	200.0
20.1	-0.001	-0.001	-0.001	-0.002	-0.002	-0.002	-0.002	-0.002	656466	0	0	0	2	457	0	0	200.0
20.2	0.0	0.0	-0.0	-0.001	-0.001	-0.001	-0.001	0.001	659270	0	0	0	2	555	0	0	200.0
20.3	-0.001	0.002	0.002	-0.002	0.001	-0.001	-0.001	-0.001	662291	0	0	0	4	935	0	0	200.0
20.4	0.002	-0.001	0.002	0.003	0.002	0.002	-0.0	0.002	664970	0	0	0	17	2671	0	0	200.0
20.5	0.002	-0.001	-0.001	-0.002	-0.001	0.001	-0.001	0.001	669350	0	0	0	10	3080	0	0	200.0
20.6	0.002	-0.001	-0.001	0.001	0.001	-0.003	0.001	-0.001	669976	0	0	0	69	12451	0	0	200.0
20.7	-0.001	-0.001	0.002	-0.002	-0.001	-0.001	-0.001	-0.001	671763	0	0	0	90	12418	0	0	200.0
20.8	0.0	0.0	-0.0	0.001	-0.001	2.712	0.001	-0.001	673803	0	0	0	200	1	0	0	200.0
20.9	-0.001	-0.001	0.001	-0.002	-0.0	2.769	-0.0	0.0	676879	0	0	0	461	0	0	0	200.0
21.0	-0.001	-0.001	-0.001	0.001	-0.002	2.785	0.001	-0.002	676104	0	0	0	795	0	0	0	200.0
21.1	-0.001	-0.001	-0.001	0.001	0.002	2.801	0.002	0.002	678293	0	0	0	3118	0	0	0	200.0
21.2	0.0	0.0	0.002	-0.001	0.002	2.815	0.002	0.0	680763	0	0	0	3224	0	0	0	200.0
21.3	-0.001	0.002	0.002	-0.002	0.859	2.829	-0.001	-0.001	682842	0	0	0	14738	0	0	0	200.0
21.4	-0.001	-0.001	-0.001	-0.002	2.826	2.841	0.001	-0.002	685807	0	0	0	0	0	0	0	200.0
21.5	0.002	-0.001	-0.001	0.001	2.854	2.859	0.002	0.0	685031	0	0	0	0	0	0	0	200.0
21.6	-0.001	-0.001	-0.001	-0.002	2.871	2.873	0.001	-0.001	685148	0	0	0	0	0	0	0	200.0
21.7	-0.001	-0.001	0.002	-0.002	2.885	2.885	-0.001	-0.001	686406	0	0	0	0	0	0	0	200.0
21.8	-0.001	-0.001	0.002	-0.002	2.903	2.905	-0.001	-0.001	689068	0	0	0	0	0	0	0	200.0
21.9	-0.001	-0.001	-0.001	-0.002	2.915	2.922	-0.001	0.001	688083	0	0	0	0	0	0	0	200.0
22.0	0.002	-0.001	-0.001	-0.002	2.929	2.937	0.001	0.001	688968	0	0	0	0	0	0	0	200.0
22.1	0.0	0.002	0.002	-0.001	2.944	2.949	0.001	0.001	691546	0	0	0	0	0	0	0	200.0
22.2	-0.001	0.002	-0.001	-0.002	2.958	2.965	0.001	-0.002	692687	0	0	0	0	0	0	0	200.0
22.3	0.0	0.0	0.002	-0.001	2.971	2.976	0.001	-0.001	693386	0	0	0	0	0	0	0	200.0
22.4	0.0	0.0	-0.0	-0.001	2.986	2.993	0.001	-0.001	692963	0	0	0	0	0	0	0	200.0
22.5	-0.001	-0.001	-0.001	-0.002	3.003	3.01	-0.001	-0.001	693568	0	0	0	0	0	0	0	200.0
22.6	-0.001	-0.001	-0.001	-0.002	3.02	3.027	-0.001	-0.001	694668	0	0	0	0	0	0	0	200.0
22.7	0.0	0.0	0.002	0.001	3.039	3.039	-0.001	-0.001	695192	0	0	0	0	0	0	0	200.0
22.8	-0.001	-0.001	-0.001	0.001	3.056	3.056	-0.001	-0.001	695154	0	0	0	0	0	0	0	200.0
22.9	0.002	-0.001	0.002	0.001	3.069	3.071	-0.001	-0.001	695881	0	0	0	0	0	0	0	200.0
23.0	-0.001	-0.001	-0.001	0.001	3.083	3.086	-0.003	-0.001	695828	0	0	0	0	0	0	0	200.0
23.1	-0.001	0.002	-0.001	-0.002	3.098	3.098	-0.001	0.004	697017	0	0	0	0	0	0	0	200.0
23.2	0.002	-0.001	-0.001	-0.002	3.113	3.113	-0.001	0.001	697506	0	0	0	0	0	0	0	200.0
23.3	0.0	0.0	-0.0	-0.001	3.125	3.127	0.001	-0.001	696519	0	0	0	0	0	0	0	200.0
23.4	0.002	0.002	-0.001	-0.002	3.139	3.139	-0.001	-0.001	697058	0	0	0	0	0	0	0	200.0
23.5	0.0	-0.001	-0.0	-0.001	3.157	3.154	0.001	-0.001	695934	0	0	0	0	0	0	0	200.0
23.6	-0.001	-0.001	-0.001	-0.002	3.169	3.169	-0.001	0.001	697425	0	0	0	0	0	0	0	200.0
23.7	0.0	-0.001	0.002	-0.001	3.186	3.183	0.001	-0.001	698245	0	0	0	0	0	0	0	200.0
23.8	-0.001	-0.001	-0.001	-0.002	3.201	3.204	-0.0	0.002	698269	0	0	0	0	0	0	0	200.0
23.9	-0.001	-0.001	0.002	-0.002	3.213	3.218	-0.001	-0.001	698238	0	0	0	0	0	0	0	200.0
24.0	0.001	-0.001	0.001	0.0	3.225	3.23	-0.001	-0.001	698156	0	0	0	0	0	0	0	200.0
24.1	-0.001	-0.001	0.002	0.001	3.242	3.247	0.001	-0.001	697660	0	0	0	0	0	0	0	200.0
24.2	0.002	0.002	-0.0	-0.001	3.257	3.262	-0.0	0.0	698687	0	0	0	0	0	0	0	200.0
24.3	0.0	0.0	0.002	-0.001	3.274	3.276	-0.001	-0.001	698687	0	0	0	0	0	0	0	200.0
24.4	0.0	0.0	-0.0	-0.001	3.284	3.289	-0.0	0.002	701446	0	0	0	0	0	0	0	200.0
24.5	-0.001	-0.001	0.002	-0.002	3.298	3.302	-0.002	0.001	700361	0	0	0	0	0	0	0	200.0
24.6	-0.001	-0.001	-0.001	0.001	3.313	3.323	0.001	0.001	699383	0	0	0	0	0	0	0	200.0
24.7	-0.001	0.002	-0.001	-0.002	3.332	3.337	-0.001	-0.001	699263	0	0	0	0	0	0	0	200.0
24.8	-0.001	-0.001	-0.001	-0.002	3.349	3.352	0.001	-0.001	700277	0	0	0	0	0	0	0	200.0
24.9	0.002	-0.001	-0.001	0.003	3.362	3.367	-0.001	0.001	699847	0	0	0	0	0	0	0	200.0
25.0	-0.001	0.002	-0.001	0.001	3.379	3.381	0.001	0.001	700007	0	0	0	0	0	0	0	200.0
25.1	-0.001	-0.001	-0.001	0.001	3.393	3.396	0.001	-0.001	698149	0	0	0	0	0	0	0	200.0
25.2	-0.001	-0.001	0.002	-0.002	3.408	3.408	0.004	0.001	699448	0	0	0	0	0	0	0	200.0
25.3	0.0	0.0	-0.0	-0.001	3.423	3.425	0.001	0.001	699751	0	0	0	0	0	0	0	200.0
25.4	0.002	0.002	0.002	0.001	3.438	3.438	-0.003	0.002	698453	0	0	0	0	0	0	0	200.0
25.5	0.0	0.0	-0.0	0.001	3.453	3.453	0.002	0.002	699244	0	0	0	0	0	0	0	200.0
25.6	0.002	0.002	0.002	-0.002	3.466	3.466	0.001	0.001	699202	0	0	0	0	0	0	0	200.0
25.7	-0.001	-0.001	-0.001	-0.002	3.481	3.484	-0.001	-0.001	699060	0	0	0	0	0	0	0	200.0
25.8	0.0	0.002	0.002	0.001	3.497	3.501	0.002	0.0	698281	0	0	0	0	0	0	0	200.0
25.9	0.0	0.002	-0.0	-0.002	3.508	3.513	-0.001	-0.001	699457	0	0	0	0	0	0	0	200.0
26.0	0.0	0.0	-0.0	-0.001	3.525	3.53	-0.001	0.001	699863	0	0	0	0	0	0	0	200.0
26.1	-0.001	0.002	-0.001	-0.002	3.543	3.545	0.002	0.0	699867	0	0	0	0	0	0	0	200.0
26.2	-0.001	-0.001	-0.001	0.001	3.557	3.557	-0.001	-0.001	700198	0	0	0	0	0	0	0	200.0
26.3	-0.001	-0.001	-0.001	-0.002	3.574	3.572	0.001	0.001	698909	0	0	0	0	0	0	0	200.0
26.4	0.005	0.0	-0.0	-0.001	3.588	3.588	-0.002	0.001	697333	0	0	0	0	0	0	0	200.0
26.5	-0.001	0.002	-0.001	0.001	3.603	3.603	0.001	-0.001	698122	0	0	0	0	0	0	0	200.0
26.6	-0.001	-0.001	0.002	-0.002	3.618	3.621	0.001	0.001	698860	0	0	0	0	0	0	0	200.0
26.7	0.0	0.0	-0.0	0.001	3.633	3.633	-0.001	-0.001	698099	0	0	0	0	0	0	0	200.0
26.8	-0.001	-0.001	-0.001	0.001	3.646	3.648	0.002	0.0	699285	0	0	0	0	0	0	0	200.0
26.9	0.002	-0.001	-0.001	-0.002	3.66	3.662	0.001	-0.001	698731	0	0	0	0	0	0	0	200.0
27.0	0.0	0.002	-0.0	-0.001	3.674	3.677	-0.001	-0.001	698186	0	0	0	0	0	0	0	200.0
27.1	0.002	0.0	-0.0	-0.001	3.691	3.689	-0.003	-0.001	699030	0	0	0	0	0	0	0	200.0
27.2	-0.001	-0.001	-0.001	-0.002	3.703	3.703	0.001	-0.002	698436	0	0	0	0	0	0	0	200.0
27.3	-0.001	0.001	-0.001	0.0	3.718	3.723	0.001	-0.001	697919	0	0	0	0	0	0	0	200.0
27.4	0.0	0.002	0.002	-0.001	3.735	3.74	0.001	0.001	697201	0	0	0	0	0	0	0	200.0
27.5	-0.001	-0.001	-0.001	-0.002	3.748	3.752	-0.001	0.004	696944	0	0	0	0	0	0	0	200.0
27.6	0.002	0.002	0.002	0.001	3.762	3.767	0.001	-0.001	698077	0	0	0	0	0	0	0	200.0
27.7	0.002	-0.001	-0.001	-0.002	3.779	3.782	0.001	-0.001	697777	0	0	0	0	0	0	0	200.0
27.8	-0.001	0.002	-0.001	-0.002	3.797	3.797	0.002	0.002	697442	0	0	0	0	0	0	0	200.0
27.9	-0.001	0.002	-0.001	-0.002	3.809	3.809	0.001	-0.001	697649	0	0	0	0	0	0	0	200.0
28.0	0.002	0.0	-0.0	0.001	3.823	3.823	-0.001	0.001	699259	0	0	0	0	0	0	0	200.0
28.1	0.002	0.0	0.002	-0.001	3.839	3.839	0.003	0.003	695908	0	0	0	0	0	0	0	200.0
28.2	0.002	-0.001	0.002	0.001	3.853	3.853	-0.001	0.001	696050	0	0	0	0	0	0	0	200.0
28.3	0.0	0.002	-0.0	-0.001	3.867	3.875	-0.001	-0.001	696739	0	0	0	0	0	0	0	200.0
28.4	-0.001	0.002	0.002	-0.002	3.882	3.887	0.001	-0.001	696374	0	0	0	0	0	0	0	200.0
28.5	0.0	0.0	0.002	-0.001	3.896	3.901	-0.001	0.001	697524	0	0	0	0	0	0	0	200.0
28.6	0.0	0.0	-0.0	-0.001	3.911	3.915	-0.002	-0.002	696721	0	0	0	0	0	0	0	200.0
28.7	0.001	-0.001	-0.001	0.0	3.928	3.928	-0.001	-0.001	696698	0	0	0	0	0	0	0	200.0
28.8	0.0	0.0	0.002	-0.001	3.943	3.946	0.002	0.002	696194	0	0	0	0	0	0	0	200.0
28.9	0.0	0.0	0.002	-0.001	3.958	3.958	0.001	-0.001	695554	0	0	0	0	0	0	0	200.0
29.0	0.002	0.002	-0.0	-0.001	3.972	3.972	-0.001	0.001	696445	0	0	0	0	0	0	0	200.0
29.1	-0.001	0.002	-0.001	0.001	3.987	3.987	-0.001	0.001	696026	0	0	0	0	0	0	0	200.0
29.2	0.001	-0.001	0.001	-0.002	4.002	4.002	-0.0	-0.003	695873	0	0	0	0	0	0	0	200.0
29.3	0.0	0.002	-0.0	-0.001	4.016	4.021	0.001	-0.001	695444	0	0	0	0	0	0	0	200.0
29.4	0.0	0.002	-0.0	-0.001	4.031	4.031	0.001	0.004	696323	0	0	1	0	0	0	0	200.0
29.5	0.0	0.0	-0.0	-0.001	4.048	4.048	-0.001	0.001	695374	0	0	0	0	0	0	0	200.0
29.6	0.0	0.0	0.002	-0.001	4.058	4.063	-0.003	0.0	694763	0	0	0	0	0	0	0	200.0
29.7	-0.001	-0.001	-0.001	-0.002	4.072	4.08	-0.001	-0.001	696530	0	0	0	0	0	0	0	200.0
29.8	-0.001	0.002	-0.001	-0.002	4.09	4.095	0.002	0.0	695329	0	0	0	0	0	0	0	200.0
29.9	0.002	-0.001	0.002	-0.002	4.107	4.107	0.002	-0.003	694300	0	0	0	0	0	0	0	200.0
30.0	0.0	0.0	-0.0	-0.001	4.121	4.124	0.001	0.001	695358	0	0	0	0	0	0	0	200.0
30.1	0.0	0.002	-0.0	0.001	4.136	4.136	-0.001	-0.001	694390	0	0	1	0	0	0	0	200.0
30.2	-0.001	0.002	0.002	-0.002	4.147	4.15	-0.002	-0.002	694336	0	0	0	0	0	0	0	200.0
30.3	0.002	0.002	0.002	-0.001	4.168	4.168	0.001	-0.001	694010	0	0	0	0	0	0	0	200.0
30.4	-0.001	-0.001	0.002	-0.002	4.182	4.182	0.001	0.001	694377	0	0	0	0	0	0	0	200.0
30.5	0.0	0.0	-0.0	-0.001	4.195	4.197	-0.0	0.002	693288	0	0	1	0	0	0	0	200.0
30.6	0.002	-0.001	0.002	-0.002	4.212	4.212	0.001	-0.001	693364	0	0	0	0	0	0	0	200.0
30.7	0.001	0.001	-0.001	-0.002	4.221	4.224	0.001	0.001	693147	0	0	0	0	0	0	0	200.0
30.8	0.0	0.0	-0.0	0.001	4.238	4.238	0.001	-0.001	695264	0	0	0	0	0	0	0	200.0
30.9	0.0	0.0	-0.0	0.004	4.253	4.255	-0.001	-0.001	694583	0	0	0	0	0	0	0	200.0
31.0	0.002	-0.001	0.002	-0.002	4.268	4.27	0.004	0.001	693293	0	0	0	0	0	0	0	200.0
31.1	4.087	-0.001	-0.001	-0.002	4.282	4.287	-0.001	0.001	1	0	0	0	0	0	0	0	200.0
31.2	4.195	0.002	-0.001	-0.002	4.297	4.299	0.001	0.001	0	0	0	0	0	0	0	0	200.0
31.3	4.212	0.002	-0.001	-0.002	4.309	4.312	-0.001	0.001	0	0	0	0	0	0	0	0	200.0
31.4	4.226	-0.001	-0.001	-0.002	4.324	4.331	-0.001	0.001	0	0	0	0	0	0	0	0	200.0
31.5	4.241	-0.001	-0.001	0.001	4.34	4.345	0.001	-0.002	0	0	0	0	0	0	0	0	200.0
31.6	4.256	0.002	0.002	-0.001	4.353	4.358	0.001	0.001	0	0	2	0	0	0	0	0	200.0
31.7	4.27	0.002	-0.001	-0.002	4.37	4.373	-0.001	-0.001	0	0	2	0	0	0	0	0	200.0
31.8	4.286	0.002	-0.0	0.001	4.382	4.387	0.001	-0.001	0	0	4	0	0	0	0	0	200.0
31.9	4.298	0.0	0.002	-0.001	4.4	4.403	-0.0	0.0	0	0	13	0	0	0	0	0	200.0
32.0	4.314	0.002	0.002	-0.002	4.411	4.416	0.001	-0.002	0	0	20	0	0	0	0	0	200.0
32.1	4.327	0.002	0.002	-0.001	4.429	4.431	-0.001	-0.003	0	0	69	0	0	0	0	0	200.0
32.2	4.341	0.002	0.002	-0.002	4.449	4.449	-0.0	0.0	0	0	144	0	0	0	0	0	200.0
32.3	4.358	-0.001	-0.001	-0.002	4.461	4.461	-0.001	-0.001	0	0	555	0	0	0	0	0	200.0
32.4	4.376	0.0	0.002	-0.002	4.477	4.477	-0.002	0.001	0	0	857	0	0	0	0	0	200.0
32.5	4.388	0.0	3.863	-0.001	4.49	4.492	-0.003	0.001	0	0	880	0	0	0	0	0	200.0
32.6	4.405	-0.001	4.378	0.001	4.506	4.506	-0.002	0.001	0	0	0	0	0	0	0	0	200.0
32.7	4.42	0.0	4.398	-0.001	4.522	4.525	-0.0	0.002	0	0	0	0	0	0	0	1	200.0
32.8	4.431	-0.001	4.412	-0.002	4.534	4.539	-0.001	-0.001	0	0	0	0	0	0	0	0	200.0
32.9	4.446	-0.001	4.427	-0.002	4.549	4.551	-0.001	-0.001	0	0	0	2	0	0	0	0	200.0
33.0	4.464	0.002	4.442	-0.001	4.563	4.565	-0.002	-0.002	0	0	0	0	0	0	0	0	200.0
33.1	4.473	0.002	4.458	-0.002	4.578	4.58	0.001	0.001	0	0	0	0	0	0	0	0	200.0
33.2	4.493	0.002	4.471	-0.001	4.596	4.596	-0.0	0.002	0	0	0	0	0	0	0	1	200.0
33.3	4.507	-0.001	4.487	-0.002	4.607	4.61	0.001	0.001	0	0	0	0	0	0	0	1	200.0
33.4	4.524	-0.001	4.497	-0.002	4.624	4.624	0.001	-0.001	0	0	0	0	0	0	0	0	200.0
33.5	4.54	0.0	4.518	-0.001	4.638	4.638	-0.002	-0.004	0	0	0	0	0	0	0	0	200.0
33.6	4.556	-0.001	4.527	0.001	4.657	4.652	-0.0	0.002	0	0	0	1	0	0	0	0	200.0
33.7	4.566	-0.001	4.541	-0.002	4.668	4.665	0.001	0.001	0	0	0	0	0	0	0	1	200.0
33.8	4.58	0.002	4.558	-0.002	4.685	4.683	0.001	-0.001	0	3	0	0	0	0	0	0	200.0
33.9	4.598	0.0	4.576	-0.001	4.701	4.701	-0.0	0.002	0	1	0	0	0	0	1	1	200.0
34.0	4.608	0.002	4.593	0.001	4.715	4.712	0.001	-0.003	0	7	0	0	0	0	1	0	200.0
34.1	4.624	-0.001	4.604	0.0	4.727	4.727	-0.001	-0.001	0	15	0	0	0	0	8	0	200.0
34.2	4.645	0.0	4.621	-0.001	4.744	4.741	-0.001	0.001	0	45	0	1	0	0	32	3	200.0
34.3	4.659	0.0	4.635	-0.001	4.759	4.763	0.001	0.001	0	40	0	2	0	0	57	10	200.0
34.4	4.671	0.002	4.649	-0.002	4.773	4.773	-0.001	0.001	0	110	0	2	0	0	125	25	200.0
34.5	4.685	-0.001	4.663	0.001	4.785	4.788	-0.001	-0.001	0	360	0	2	0	0	611	57	200.0
34.6	4.7	0.002	4.681	-0.002	4.802	4.805	0.001	0.001	0	606	0	0	0	0	698	83	200.0
34.7	4.713	4.53	4.698	0.001	4.817	4.817	4.573	-0.003	0	1	0	3	0	0	1	97	200.0
34.8	4.73	4.706	4.71	0.001	4.832	4.832	4.702	-0.001	0	0	0	9	0	0	0	226	200.0
34.9	4.746	4.722	4.727	-0.002	4.844	4.846	4.719	-0.001	0	0	0	6	0	0	0	564	200.0
35.0	4.761	4.739	4.739	-0.002	4.856	4.861	4.734	-0.003	0	0	0	11	0	0	0	737	200.0
