2024-06-28 12:45:43

Description 
===========





IV Curve
========

Abbreviation: BC = Bias Current (muA), BV = Bias Voltage (V), C = Counts, IT = Integration Time (ms)
Detector number is attached to abbreviation, e.g. BV3 is the bias voltage of the third detector.

BC	BV1	BV2	BV3	BV4	BV5	BV6	BV7	BV8	C1	C2	C3	C4	C5	C6	C7	C8	IT

0.0	0.002	0.002	-0.0	-0.001	-0.004	0.001	-0.002	-0.002	1	0	0	0	0	0	0	0	200.0
0.1	-0.001	0.002	-0.001	0.001	0.001	0.001	-0.004	0.001	0	0	0	0	0	0	0	0	200.0
0.2	-0.001	0.002	0.002	-0.002	-0.002	0.001	-0.002	-0.002	0	0	0	0	0	0	0	0	200.0
0.3	0.0	0.002	0.002	-0.001	-0.001	-0.001	-0.001	-0.001	0	0	0	0	0	0	0	0	200.0
0.4	-0.001	-0.001	0.002	-0.002	-0.001	-0.001	0.001	0.001	0	0	0	0	0	0	0	0	200.0
0.5	0.0	0.0	-0.0	-0.001	0.001	-0.003	-0.001	-0.001	0	0	0	0	0	0	0	0	200.0
0.6	0.0	0.0	0.002	-0.002	0.001	-0.001	-0.001	0.001	0	0	0	0	0	0	0	0	200.0
0.7	0.0	0.0	-0.0	-0.001	-0.001	-0.001	-0.001	-0.003	0	0	0	0	0	0	0	0	200.0
0.8	-0.001	-0.001	-0.001	0.001	-0.002	0.001	-0.002	-0.002	0	0	0	0	0	0	0	0	200.0
0.9	-0.001	0.002	-0.0	-0.001	0.002	0.002	-0.003	0.002	0	0	0	0	0	0	0	0	200.0
1.0	0.0	0.0	0.002	-0.001	0.001	-0.002	0.001	-0.002	0	0	0	0	0	0	0	0	200.0
1.1	-0.001	-0.001	0.002	-0.002	-0.001	0.001	-0.001	-0.001	0	0	0	0	0	0	0	0	200.0
1.2	-0.001	-0.001	0.002	-0.002	-0.001	0.001	0.001	-0.001	0	0	0	0	0	0	0	0	200.0
1.3	0.001	-0.001	0.003	-0.002	-0.002	0.001	-0.002	-0.002	0	0	0	0	0	0	0	0	200.0
1.4	0.004	-0.001	-0.001	-0.002	-0.001	-0.001	-0.001	-0.001	0	0	0	0	0	0	0	0	200.0
1.5	-0.001	-0.001	-0.001	-0.002	-0.0	0.0	0.002	0.002	0	0	0	0	0	0	0	0	200.0
1.6	0.0	0.0	-0.0	-0.001	0.001	0.001	-0.002	-0.002	0	0	0	0	0	0	0	0	200.0
1.7	0.0	0.0	0.002	-0.001	-0.0	0.0	0.002	0.002	0	0	0	0	0	0	0	0	200.0
1.8	-0.001	0.002	-0.001	-0.002	0.004	0.004	-0.001	-0.001	0	0	0	0	0	0	0	0	200.0
1.9	0.0	0.0	-0.0	-0.001	0.001	-0.001	-0.001	-0.001	0	0	0	0	0	0	0	0	200.0
2.0	-0.001	-0.001	-0.001	0.001	-0.001	-0.003	0.001	-0.001	0	0	0	0	0	0	0	0	200.0
2.1	0.002	-0.001	-0.001	-0.002	-0.001	-0.001	0.001	-0.001	0	0	0	0	0	0	0	0	200.0
2.2	0.002	-0.001	0.002	-0.002	-0.001	0.001	-0.001	-0.001	0	0	0	0	0	0	0	0	200.0
2.3	-0.001	0.001	-0.001	-0.002	-0.003	0.001	0.001	0.001	0	0	0	0	0	0	0	0	200.0
2.4	-0.001	-0.001	-0.001	-0.002	0.002	0.0	0.002	0.0	0	0	0	0	0	0	0	0	200.0
2.5	-0.001	-0.001	-0.001	-0.002	-0.003	0.0	-0.0	0.0	0	0	0	0	0	0	0	0	200.0
2.6	-0.001	0.002	-0.001	-0.002	-0.002	-0.004	0.001	-0.002	0	0	0	0	0	0	0	0	200.0
2.7	0.0	0.0	0.002	-0.001	0.002	0.0	0.002	0.0	0	0	0	0	0	0	0	0	200.0
2.8	-0.001	-0.001	-0.001	-0.002	-0.001	-0.001	0.001	-0.001	0	0	0	0	0	0	0	0	200.0
2.9	0.0	0.0	0.002	-0.001	-0.001	0.001	-0.001	-0.001	0	0	0	0	0	0	0	0	200.0
3.0	-0.001	-0.001	-0.001	-0.002	0.001	-0.001	0.001	-0.003	0	0	0	0	0	0	0	0	200.0
3.1	-0.001	-0.001	-0.001	-0.002	-0.001	-0.001	-0.001	-0.001	0	0	0	0	0	0	0	0	200.0
3.2	0.0	0.0	-0.0	-0.001	0.001	-0.001	0.001	-0.001	0	0	0	0	0	0	0	0	200.0
3.3	0.0	0.0	-0.0	-0.001	-0.001	-0.001	0.001	-0.001	0	0	0	0	0	0	0	0	200.0
3.4	-0.001	-0.001	-0.001	0.001	0.002	0.0	0.002	0.0	0	0	0	0	0	0	0	0	200.0
3.5	-0.001	0.002	-0.001	-0.002	0.001	0.001	-0.002	-0.004	0	0	0	0	0	0	0	0	200.0
3.6	-0.001	-0.001	0.002	-0.002	-0.001	-0.001	-0.001	0.001	0	0	0	0	0	0	0	0	200.0
3.7	0.0	0.0	-0.0	-0.002	0.001	0.003	-0.002	-0.002	0	0	0	0	0	0	0	0	200.0
3.8	-0.001	0.002	-0.001	-0.002	0.001	-0.003	-0.003	0.001	0	0	0	0	0	0	0	0	200.0
3.9	0.0	0.0	-0.0	-0.001	-0.0	0.002	0.002	0.002	0	0	0	0	0	0	0	0	200.0
4.0	0.002	-0.001	-0.001	-0.002	-0.002	-0.002	0.001	-0.004	0	0	0	0	0	0	0	0	200.0
4.1	0.0	0.0	0.002	-0.001	0.001	0.001	-0.001	-0.001	0	0	0	0	0	0	0	0	200.0
4.2	0.0	0.0	-0.0	-0.001	-0.001	-0.001	-0.001	-0.003	0	0	0	0	0	0	0	0	200.0
4.3	-0.001	-0.001	-0.001	-0.002	0.001	-0.003	-0.001	0.001	0	0	0	0	0	0	0	0	200.0
4.4	0.0	0.0	-0.0	0.001	-0.001	-0.001	0.001	0.001	0	0	0	0	0	0	0	0	200.0
4.5	0.0	0.0	-0.0	-0.001	-0.001	-0.001	0.001	-0.001	0	0	0	0	0	0	0	0	200.0
4.6	-0.001	-0.001	-0.001	-0.002	-0.0	0.0	0.002	0.002	0	0	0	0	0	0	0	0	200.0
4.7	-0.001	-0.001	-0.001	-0.002	0.002	0.002	0.002	0.002	0	0	0	0	0	0	0	0	200.0
4.8	0.002	0.002	-0.0	-0.001	-0.002	-0.004	0.001	0.001	0	0	0	0	0	0	0	0	200.0
4.9	-0.001	-0.001	-0.001	0.001	0.001	-0.001	0.001	0.001	0	0	0	0	0	0	0	0	200.0
5.0	0.002	0.002	0.002	-0.002	0.001	-0.001	0.001	-0.001	0	0	0	0	0	0	0	0	200.0
5.1	0.002	0.002	-0.001	-0.002	0.001	0.001	0.001	-0.004	0	0	0	0	0	0	0	0	200.0
5.2	-0.001	-0.001	-0.001	0.001	-0.001	-0.001	-0.003	-0.001	0	0	0	0	0	0	0	0	200.0
5.3	0.0	0.002	-0.0	-0.001	-0.002	-0.002	-0.002	-0.002	0	0	0	0	0	0	0	0	200.0
5.4	0.0	0.002	-0.0	-0.001	0.001	0.001	0.001	-0.001	0	0	0	0	0	0	0	0	200.0
5.5	-0.001	-0.001	0.002	-0.002	0.001	-0.001	-0.001	0.001	0	0	0	0	0	0	0	0	200.0
5.6	0.002	-0.001	-0.001	0.001	-0.003	-0.001	-0.001	-0.001	0	0	0	0	0	0	0	0	200.0
5.7	0.002	-0.001	-0.001	-0.002	-0.002	-0.002	-0.002	-0.002	0	0	0	0	0	0	0	0	200.0
5.8	0.002	0.0	-0.0	-0.002	0.001	-0.002	-0.002	-0.002	0	0	0	0	0	0	0	0	200.0
5.9	-0.001	-0.001	0.002	0.001	0.001	-0.001	-0.001	0.001	0	0	0	0	0	0	0	0	200.0
6.0	0.0	0.0	-0.0	-0.001	-0.0	0.002	0.002	0.0	0	0	0	0	0	0	0	0	200.0
6.1	-0.001	-0.001	-0.001	-0.002	-0.001	0.001	0.001	-0.003	0	0	0	0	0	0	0	0	200.0
6.2	0.002	-0.001	-0.001	0.001	-0.002	-0.002	0.001	-0.004	0	0	0	0	0	0	0	0	200.0
6.3	0.002	-0.001	-0.001	-0.002	0.001	0.001	-0.001	0.001	0	0	0	0	0	0	0	0	200.0
6.4	0.0	0.0	-0.0	-0.001	-0.0	0.0	-0.0	0.0	0	0	0	0	0	0	0	0	200.0
6.5	0.0	0.0	-0.0	-0.001	0.004	-0.001	-0.001	0.001	0	0	0	0	0	0	0	0	200.0
6.6	0.0	0.0	-0.0	-0.001	0.002	0.002	0.002	0.0	0	0	0	0	0	0	0	0	200.0
6.7	0.002	0.0	-0.0	-0.001	-0.0	0.0	0.002	0.002	0	0	0	0	0	0	0	0	200.0
6.8	0.002	-0.001	-0.001	-0.002	0.001	-0.001	0.001	-0.001	0	0	0	0	0	0	0	0	200.0
6.9	0.002	-0.001	0.002	-0.002	0.001	-0.002	0.001	-0.004	0	0	0	0	0	0	0	0	200.0
7.0	0.0	0.002	-0.0	-0.001	0.001	-0.001	-0.001	-0.001	0	0	0	0	0	0	0	0	200.0
7.1	0.002	-0.001	-0.001	-0.002	-0.002	-0.002	-0.002	-0.002	0	0	0	0	0	0	0	0	200.0
7.2	0.0	0.0	0.002	0.001	-0.001	-0.003	0.001	0.004	0	0	0	0	0	0	0	0	200.0
7.3	0.0	0.0	-0.0	-0.001	-0.002	-0.002	0.001	-0.002	0	0	0	0	0	0	0	0	200.0
7.4	-0.001	-0.001	0.002	-0.002	-0.001	-0.001	0.001	0.001	0	0	0	0	0	0	0	0	200.0
7.5	0.0	0.0	-0.0	-0.001	0.001	0.001	-0.001	0.001	0	0	0	0	0	0	0	0	200.0
7.6	-0.001	0.001	-0.001	-0.002	-0.0	0.0	-0.0	0.0	0	0	0	0	0	0	0	0	200.0
7.7	-0.001	-0.001	-0.001	-0.002	-0.0	0.0	-0.0	0.0	0	0	0	0	0	0	0	0	200.0
7.8	-0.001	0.002	-0.001	-0.002	0.001	-0.001	0.001	0.001	0	0	0	0	0	0	0	0	200.0
7.9	0.0	0.0	-0.0	-0.001	-0.001	0.001	-0.001	-0.001	0	0	0	0	0	0	0	0	200.0
8.0	0.002	0.0	-0.0	-0.001	-0.001	-0.001	0.001	-0.001	0	0	0	0	0	0	0	0	200.0
8.1	-0.001	-0.001	0.002	-0.002	-0.002	-0.002	-0.002	-0.004	0	0	0	0	0	0	0	0	200.0
8.2	0.0	0.0	0.005	0.001	-0.001	-0.003	0.001	-0.001	0	0	0	0	0	0	0	0	200.0
8.3	0.0	-0.001	0.002	-0.001	0.001	0.001	0.001	-0.001	0	0	0	0	0	0	0	0	200.0
8.4	-0.001	-0.001	0.002	-0.002	-0.0	0.002	0.002	0.0	0	0	0	0	0	0	0	0	200.0
8.5	0.002	-0.001	-0.001	-0.002	-0.001	0.001	0.001	-0.001	0	0	0	0	0	0	0	0	200.0
8.6	-0.001	-0.001	0.002	-0.002	-0.0	0.0	0.005	0.002	0	0	0	0	0	0	0	0	200.0
8.7	-0.001	-0.001	0.001	0.0	0.001	-0.001	-0.001	0.001	0	0	0	0	0	0	0	0	200.0
8.8	0.0	0.0	-0.0	-0.001	-0.0	0.0	0.002	0.002	1	0	0	0	0	0	0	0	200.0
8.9	0.0	0.0	0.002	-0.001	-0.001	-0.001	0.001	-0.001	3	0	0	0	0	0	0	0	200.0
9.0	0.0	0.0	-0.0	-0.001	-0.001	0.004	-0.003	0.001	0	0	0	0	0	0	0	0	200.0
9.1	0.0	0.0	-0.0	-0.001	-0.001	-0.001	-0.001	-0.001	1	0	0	0	0	0	0	0	200.0
9.2	0.002	-0.001	-0.001	-0.002	-0.001	0.001	-0.003	-0.001	4	0	0	0	0	0	0	0	200.0
9.3	0.0	0.002	0.002	0.004	-0.001	0.001	-0.003	0.001	2	0	0	0	0	0	0	0	200.0
9.4	-0.001	-0.001	-0.001	-0.002	-0.001	0.004	0.001	0.001	1	0	0	0	0	0	0	0	200.0
9.5	0.0	0.0	-0.0	-0.001	0.001	0.001	0.001	-0.001	5	0	0	0	0	0	0	0	200.0
9.6	-0.001	0.002	0.002	-0.002	-0.0	0.0	-0.0	-0.003	3	0	0	0	0	0	0	0	200.0
9.7	0.0	0.0	-0.0	-0.001	-0.001	-0.001	0.001	0.001	9	0	0	0	0	0	0	0	200.0
9.8	-0.001	-0.001	0.002	-0.002	-0.001	-0.001	0.001	-0.001	12	0	0	0	0	0	0	0	200.0
9.9	-0.001	-0.001	0.002	-0.002	-0.001	-0.001	0.001	0.001	15	0	0	0	0	0	0	0	200.0
10.0	0.0	0.0	-0.0	0.001	0.001	-0.001	0.001	-0.001	15	0	0	0	0	0	0	0	200.0
10.1	0.002	-0.001	-0.001	0.001	0.001	0.001	-0.001	-0.001	39	0	0	0	0	0	0	0	200.0
10.2	0.0	0.0	-0.0	-0.002	0.002	0.0	-0.003	0.0	32	0	0	0	0	0	0	0	200.0
10.3	-0.001	-0.001	-0.001	0.0	0.001	0.001	-0.001	-0.001	56	0	0	0	0	0	0	0	200.0
10.4	0.0	0.0	-0.0	-0.001	-0.001	-0.001	0.001	-0.001	82	0	0	0	0	0	0	0	200.0
10.5	0.0	0.0	-0.0	-0.001	0.002	0.002	-0.0	0.0	105	0	0	0	0	0	0	0	200.0
10.6	0.002	-0.001	-0.001	-0.002	-0.0	0.0	-0.0	0.0	157	0	0	0	0	0	0	0	200.0
10.7	-0.001	-0.001	-0.001	-0.002	0.001	0.001	0.001	-0.001	207	0	0	0	0	0	0	0	200.0
10.8	-0.001	0.002	-0.001	-0.002	0.002	0.0	-0.0	0.0	306	0	0	0	0	0	0	0	200.0
10.9	-0.001	0.002	-0.001	0.001	-0.001	-0.001	-0.001	0.001	454	0	0	0	0	0	0	0	200.0
11.0	0.0	-0.001	0.002	-0.001	-0.001	-0.001	-0.001	-0.001	626	0	0	0	0	0	0	0	200.0
11.1	0.0	0.0	0.002	0.001	0.001	0.001	0.001	-0.001	866	0	0	0	0	0	0	0	200.0
11.2	-0.001	0.002	0.002	-0.002	-0.001	-0.001	-0.001	-0.001	1132	0	0	0	0	0	0	0	200.0
11.3	-0.001	-0.001	-0.001	-0.002	0.002	0.0	-0.0	0.0	1486	0	0	0	0	0	0	0	200.0
11.4	-0.001	-0.001	-0.001	-0.002	0.001	0.001	0.001	-0.001	1976	0	0	0	0	0	0	0	200.0
11.5	-0.001	-0.001	0.002	-0.002	0.001	0.001	-0.001	-0.001	2589	0	0	0	0	0	0	0	200.0
11.6	-0.001	-0.001	-0.001	0.001	-0.001	-0.001	0.001	0.001	3417	0	0	0	0	0	0	0	200.0
11.7	0.0	0.0	-0.0	-0.002	-0.0	0.0	-0.0	0.0	4412	0	0	0	0	0	0	0	200.0
11.8	-0.001	-0.001	-0.001	0.001	-0.002	0.001	0.001	0.003	5978	0	0	0	0	0	0	0	200.0
11.9	-0.001	0.0	0.002	-0.001	-0.002	-0.002	-0.002	-0.002	7640	0	0	0	0	0	0	0	200.0
12.0	-0.001	-0.001	-0.001	0.001	0.001	-0.001	-0.001	0.001	9730	0	0	0	0	0	0	0	200.0
12.1	0.0	0.002	0.002	-0.001	-0.002	0.001	-0.002	-0.002	12674	0	0	0	0	0	0	0	200.0
12.2	0.0	0.002	-0.0	-0.001	-0.0	0.002	0.002	0.0	15985	0	0	0	0	0	0	0	200.0
12.3	-0.001	0.0	-0.0	-0.001	-0.001	0.001	0.001	-0.001	20171	0	0	0	0	0	0	0	200.0
12.4	0.002	0.002	-0.001	0.001	-0.001	-0.003	0.001	-0.001	25474	0	0	0	0	0	0	0	200.0
12.5	0.0	0.002	-0.0	-0.001	-0.001	-0.001	0.001	0.001	31772	0	0	0	0	0	0	0	200.0
12.6	0.002	0.002	0.002	-0.002	-0.002	-0.002	-0.004	0.001	39488	0	0	0	0	0	0	0	200.0
12.7	0.002	-0.001	-0.001	0.001	-0.001	-0.001	-0.001	-0.001	49114	0	0	0	0	0	0	0	200.0
12.8	-0.001	-0.001	-0.001	-0.002	-0.001	0.001	0.001	0.001	60359	0	0	0	0	0	0	0	200.0
12.9	0.0	0.0	-0.0	-0.001	0.002	-0.003	-0.0	0.0	74793	0	0	0	0	0	0	0	200.0
13.0	-0.001	-0.001	0.002	-0.002	-0.0	0.002	0.002	0.002	91046	0	0	0	0	0	0	0	200.0
13.1	0.002	-0.001	-0.001	-0.002	-0.002	0.001	0.001	-0.002	112167	0	0	0	0	0	0	0	200.0
13.2	0.0	0.0	0.002	-0.001	-0.001	-0.001	0.001	0.001	137252	0	0	0	0	0	0	0	200.0
13.3	0.002	-0.001	-0.001	-0.002	0.001	-0.004	-0.002	-0.002	167534	0	0	0	0	0	0	0	200.0
13.4	-0.001	-0.001	0.002	-0.002	0.001	-0.001	-0.001	-0.001	206942	0	0	0	0	0	0	0	200.0
13.5	-0.001	-0.001	-0.001	-0.002	0.001	-0.001	-0.001	0.001	258501	0	0	0	0	0	0	0	200.0
13.6	0.002	0.0	-0.0	-0.001	0.001	-0.002	-0.002	-0.002	320969	0	0	0	0	0	0	0	200.0
13.7	-0.001	-0.001	0.002	-0.002	-0.001	-0.001	0.001	-0.001	398249	0	0	0	0	0	0	0	200.0
13.8	-0.001	-0.001	-0.001	-0.002	-0.0	0.0	-0.0	0.002	503754	0	0	0	0	0	0	0	200.0
13.9	0.0	-0.001	-0.0	0.001	-0.001	0.001	0.001	0.001	651001	0	0	0	0	0	0	0	200.0
14.0	-0.001	-0.001	-0.001	-0.002	-0.0	0.0	0.002	0.0	868983	0	0	0	0	0	0	0	200.0
14.1	-0.001	-0.001	-0.001	-0.002	-0.001	-0.001	0.001	-0.003	1275867	0	0	0	0	0	0	0	200.0
14.2	-0.001	-0.001	-0.001	-0.002	-0.0	0.0	0.002	0.0	1902095	0	0	0	0	0	0	0	200.0
14.3	-0.001	-0.001	0.001	-0.002	-0.001	-0.001	0.001	-0.001	2382658	0	0	0	0	0	0	0	200.0
14.4	-0.001	-0.001	-0.001	-0.002	-0.001	-0.001	-0.003	0.001	2681008	0	0	0	0	0	0	0	200.0
14.5	0.0	0.0	0.002	-0.001	0.001	-0.001	0.001	0.001	2895238	0	0	0	0	0	0	0	200.0
14.6	-0.001	0.002	-0.001	-0.002	0.001	-0.003	-0.001	-0.001	3056845	0	0	0	0	0	0	0	200.0
14.7	-0.001	0.002	-0.001	0.001	0.002	0.0	0.002	0.0	3193733	0	0	0	0	0	0	0	200.0
14.8	-0.001	-0.001	0.002	-0.002	-0.0	0.0	-0.0	-0.003	3319382	0	0	0	0	0	0	0	200.0
14.9	0.002	-0.001	0.002	-0.002	0.001	-0.001	-0.003	-0.001	3421284	0	0	0	0	0	0	0	200.0
15.0	-0.001	-0.001	-0.001	-0.002	-0.002	0.001	-0.002	-0.002	3517479	0	0	0	0	0	0	0	200.0
15.1	0.0	0.0	0.002	-0.001	0.001	-0.001	-0.001	-0.001	3614182	0	0	0	0	0	0	0	200.0
15.2	-0.001	0.0	0.002	-0.001	-0.0	0.0	0.002	0.0	3686621	0	0	0	0	0	0	0	200.0
15.3	0.002	0.0	-0.0	-0.001	0.001	-0.001	-0.001	-0.001	3764495	0	0	0	0	0	0	0	200.0
15.4	-0.001	-0.001	0.001	-0.002	-0.003	-0.003	-0.001	-0.001	3832661	0	0	0	0	0	0	0	200.0
15.5	0.002	-0.001	-0.001	-0.002	0.001	0.001	-0.001	-0.001	3896283	0	0	0	0	0	0	0	200.0
15.6	-0.001	-0.001	-0.001	-0.002	0.001	0.001	-0.001	-0.001	3956369	0	0	0	0	0	0	0	200.0
15.7	-0.001	-0.001	-0.001	-0.002	-0.003	0.001	0.001	-0.003	4009938	0	0	0	0	0	0	0	200.0
15.8	0.0	0.0	0.002	-0.001	-0.0	0.002	0.002	0.0	4062754	0	0	0	0	0	0	0	200.0
15.9	0.002	0.002	0.002	-0.002	0.001	0.001	-0.001	0.001	4118745	0	0	0	0	0	0	0	200.0
16.0	0.002	-0.001	0.002	0.001	0.001	-0.002	-0.002	-0.002	4163457	0	0	0	0	0	0	0	200.0
16.1	-0.001	0.0	0.002	-0.001	-0.001	-0.001	0.001	0.004	4209840	0	0	0	0	0	0	0	200.0
16.2	0.002	-0.001	-0.001	-0.002	-0.001	-0.001	0.001	0.001	4249189	0	0	0	0	0	0	0	200.0
16.3	-0.001	-0.001	0.001	-0.002	0.002	0.0	0.002	0.0	4292708	0	0	0	0	0	0	0	200.0
16.4	-0.001	-0.001	-0.001	0.001	-0.001	-0.001	0.001	-0.001	4330756	0	0	0	0	0	0	0	200.0
16.5	0.002	0.0	-0.0	-0.001	-0.0	0.0	-0.0	0.0	4374388	0	0	0	0	0	0	0	200.0
16.6	-0.001	0.002	-0.001	-0.002	0.001	0.001	-0.001	-0.001	4412409	0	0	0	0	0	0	0	200.0
16.7	-0.001	-0.001	-0.001	-0.002	-0.003	-0.001	-0.003	-0.003	4449282	0	0	0	0	0	0	0	200.0
16.8	-0.001	-0.001	-0.001	-0.002	-0.001	-0.001	-0.001	0.001	4482229	0	0	0	0	0	0	0	200.0
16.9	-0.001	-0.001	-0.001	-0.002	-0.0	0.002	0.002	0.0	4514539	0	0	0	0	1	0	0	200.0
17.0	-0.001	-0.001	-0.001	-0.002	-0.001	-0.001	-0.001	-0.001	4545768	0	0	0	0	0	0	0	200.0
17.1	0.002	0.002	-0.0	-0.001	-0.001	-0.001	-0.001	-0.001	4573425	0	0	0	0	0	0	0	200.0
17.2	-0.001	-0.001	-0.001	-0.002	-0.003	0.001	-0.001	0.001	4608027	0	0	0	1	0	0	0	200.0
17.3	0.002	-0.001	-0.001	-0.002	0.001	0.001	0.001	-0.001	4636768	0	0	0	0	0	0	0	200.0
17.4	0.0	0.0	-0.0	-0.001	-0.001	-0.001	0.004	0.001	4666669	0	0	0	0	0	0	0	200.0
17.5	0.002	-0.001	-0.001	-0.002	0.001	-0.001	-0.001	-0.001	4691558	0	0	0	0	1	0	0	200.0
17.6	-0.001	-0.001	0.004	-0.002	0.002	0.0	-0.0	0.0	4715046	0	0	0	0	0	0	0	200.0
17.7	0.005	0.002	-0.0	0.001	-0.002	0.001	-0.002	-0.002	4740319	0	0	0	0	0	0	0	200.0
17.8	0.002	-0.001	-0.001	-0.002	0.001	0.001	-0.002	-0.002	4764739	0	0	0	0	0	0	0	200.0
17.9	-0.001	-0.001	-0.001	0.001	-0.003	-0.001	0.001	-0.001	4788463	0	0	0	0	2	0	0	200.0
18.0	-0.001	-0.001	-0.001	-0.002	-0.001	-0.001	-0.001	-0.001	4815167	0	0	0	0	1	0	0	200.0
18.1	-0.001	-0.001	-0.001	-0.002	0.002	0.0	-0.0	0.002	4836395	0	0	0	2	1	0	0	200.0
18.2	0.0	0.002	0.002	-0.001	0.002	0.0	0.002	0.0	4856746	0	0	0	0	1	0	0	200.0
18.3	0.002	-0.001	-0.001	0.001	-0.001	-0.001	0.001	0.001	4878232	0	0	0	0	1	0	0	200.0
18.4	0.0	0.002	-0.0	-0.001	-0.003	0.001	0.001	-0.001	4898650	0	0	0	0	0	0	0	200.0
18.5	0.0	0.0	-0.0	0.001	-0.0	0.0	-0.0	0.0	4915050	0	0	0	0	0	0	0	200.0
18.6	-0.001	-0.001	0.002	-0.002	-0.0	0.0	0.002	0.002	4931761	0	0	0	2	0	0	0	200.0
18.7	0.0	0.0	-0.0	-0.001	0.001	0.001	-0.002	0.001	4957088	0	0	0	1	5	0	0	200.0
18.8	0.002	0.0	-0.0	-0.002	0.001	0.001	-0.001	-0.001	4967714	0	0	0	0	1	0	0	200.0
18.9	0.005	0.0	0.002	-0.001	-0.001	-0.001	0.001	-0.001	4991266	0	0	0	0	1	0	0	200.0
19.0	-0.001	0.002	0.002	-0.002	0.001	0.001	-0.001	-0.001	5002698	0	0	0	1	0	0	0	200.0
19.1	-0.001	-0.001	-0.001	0.001	-0.001	-0.003	0.001	-0.001	5015501	0	0	0	0	0	0	0	200.0
19.2	0.0	0.0	0.002	-0.001	0.001	0.001	-0.001	-0.001	5033937	0	0	0	1	2	0	0	200.0
19.3	0.0	0.0	-0.0	-0.001	-0.001	0.001	-0.001	-0.001	5045340	0	0	0	1	1	0	0	200.0
19.4	-0.001	-0.001	0.002	-0.002	-0.001	0.001	-0.001	-0.001	5063814	0	0	0	2	7	0	0	200.0
19.5	0.0	0.0	-0.0	-0.001	-0.004	-0.004	0.001	0.001	5070442	0	0	0	0	9	0	0	200.0
19.6	-0.001	0.002	-0.001	-0.002	0.001	-0.001	0.001	0.001	5087811	0	0	0	3	25	0	0	200.0
19.7	0.002	-0.001	0.002	-0.002	0.002	0.002	0.002	0.0	5099188	0	0	0	2	30	0	0	200.0
19.8	0.002	-0.001	0.002	-0.002	-0.001	0.001	-0.001	-0.001	5106710	0	0	0	3	41	0	0	200.0
19.9	0.002	-0.001	-0.001	-0.002	-0.002	-0.002	-0.002	-0.002	5118869	0	0	0	1	117	0	0	200.0
20.0	-0.001	0.002	0.002	-0.002	0.002	0.0	0.002	0.002	5128489	0	0	0	2	158	0	0	200.0
20.1	0.002	0.0	0.002	0.001	0.001	-0.001	-0.001	-0.001	5141174	0	0	0	1	573	0	0	200.0
20.2	0.004	0.002	-0.001	-0.002	-0.003	0.0	0.002	0.002	5148565	0	0	0	3	506	0	0	200.0
20.3	-0.001	0.002	0.002	0.001	-0.002	-0.002	-0.002	0.001	5151609	0	0	0	5	1243	0	0	200.0
20.4	0.0	0.002	-0.0	-0.001	0.001	0.001	-0.001	-0.003	5162257	0	0	0	9	2585	0	0	200.0
20.5	-0.001	-0.001	-0.001	0.001	-0.002	-0.002	-0.002	-0.004	5166913	0	0	0	13	3061	0	0	200.0
20.6	-0.001	-0.001	0.002	0.001	-0.003	-0.003	-0.0	0.0	5174870	0	0	0	54	11930	0	0	200.0
20.7	0.002	0.002	0.002	-0.002	-0.001	0.001	0.001	-0.001	5185887	0	0	0	64	10983	0	0	200.0
20.8	-0.001	-0.001	-0.001	-0.002	0.001	2.568	-0.001	-0.001	5191288	0	0	0	214	4655	0	0	200.0
20.9	0.001	-0.001	-0.001	-0.002	-0.001	2.771	0.001	-0.001	5192251	0	0	0	386	0	0	0	200.0
21.0	0.002	-0.001	0.002	-0.002	-0.002	2.787	0.001	-0.002	5199790	0	0	0	590	0	0	0	200.0
21.1	-0.001	-0.001	-0.001	-0.002	-0.0	2.801	0.002	0.002	5202470	0	0	0	2507	0	0	0	200.0
21.2	0.002	-0.001	0.002	-0.002	-0.001	2.815	0.001	0.001	5210800	0	0	0	3438	0	0	0	200.0
21.3	0.0	0.0	-0.0	-0.001	1.185	2.831	0.003	-0.002	5215866	0	0	0	10418	0	0	0	200.0
21.4	0.001	-0.001	0.001	-0.002	2.832	2.844	0.004	0.004	5212759	0	0	0	0	0	0	0	200.0
21.5	2.209	0.002	0.002	-0.002	2.856	2.861	-0.001	-0.001	2600424	0	0	0	0	0	0	0	200.0
21.6	2.766	-0.001	-0.001	-0.002	2.876	2.876	-0.0	0.0	0	0	0	0	0	0	0	0	200.0
21.7	2.786	0.0	-0.0	-0.001	2.888	2.885	0.001	0.001	0	0	0	0	0	0	0	0	200.0
21.8	2.804	0.001	-0.001	-0.002	2.905	2.9	0.001	-0.001	0	0	0	0	0	0	0	0	200.0
21.9	2.822	-0.001	0.002	-0.002	2.92	2.917	0.001	-0.001	0	0	0	0	0	0	0	0	200.0
22.0	2.834	-0.001	-0.001	0.001	2.935	2.93	-0.003	0.0	0	0	0	0	0	0	0	0	200.0
22.1	2.847	-0.001	-0.001	0.001	2.946	2.951	-0.002	-0.002	0	0	0	0	0	0	0	0	200.0
22.2	2.861	-0.001	-0.001	-0.002	2.961	2.964	0.001	-0.001	0	0	0	0	0	0	0	0	200.0
22.3	2.878	-0.001	-0.001	-0.002	2.978	2.978	-0.001	-0.001	0	0	0	0	0	0	0	0	200.0
22.4	2.888	-0.001	-0.001	-0.002	2.991	2.995	-0.003	-0.001	0	0	0	0	0	0	0	0	200.0
22.5	2.908	-0.001	-0.001	0.001	3.005	3.007	-0.002	-0.002	0	0	0	0	0	0	0	0	200.0
22.6	2.925	0.002	-0.001	-0.002	3.02	3.022	-0.001	0.001	0	0	0	0	0	0	0	0	200.0
22.7	2.937	-0.001	-0.001	-0.002	3.034	3.037	-0.001	0.001	0	0	0	0	0	0	0	0	200.0
22.8	2.955	0.002	0.002	-0.001	3.049	3.051	-0.002	-0.002	0	0	0	0	0	0	0	0	200.0
22.9	2.969	-0.001	-0.0	-0.001	3.064	3.067	-0.0	0.0	0	0	0	0	0	0	0	0	200.0
23.0	2.979	0.0	-0.0	-0.001	3.076	3.086	-0.001	0.001	0	0	0	0	0	0	0	0	200.0
23.1	2.991	0.0	-0.0	-0.001	3.093	3.103	-0.001	-0.001	0	0	0	0	0	0	0	0	200.0
23.2	3.01	-0.001	-0.001	-0.002	3.113	3.116	-0.0	0.0	0	0	0	0	0	0	0	0	200.0
23.3	3.027	-0.001	-0.001	-0.002	3.127	3.127	0.001	-0.002	0	0	0	0	0	0	0	0	200.0
23.4	3.037	-0.001	-0.001	0.001	3.142	3.144	0.001	-0.001	0	0	0	0	0	0	0	1	200.0
23.5	3.052	-0.001	-0.001	-0.002	3.157	3.159	0.001	-0.003	0	0	0	0	0	0	0	0	200.0
23.6	3.069	-0.001	0.002	-0.002	3.171	3.174	0.001	-0.001	0	0	0	0	0	0	0	0	200.0
23.7	3.083	-0.001	0.002	-0.002	3.186	3.189	0.005	0.0	0	0	0	0	0	0	0	0	200.0
23.8	3.098	-0.001	0.002	-0.002	3.201	3.205	0.001	-0.001	0	0	0	0	0	0	0	0	200.0
23.9	3.116	0.0	-0.0	-0.001	3.218	3.218	-0.001	-0.001	0	0	0	0	0	0	0	0	200.0
24.0	3.127	-0.001	0.001	-0.002	3.23	3.235	-0.001	-0.001	0	0	0	0	0	0	0	0	200.0
24.1	3.141	-0.001	-0.001	-0.002	3.244	3.247	-0.001	-0.001	0	0	0	0	0	0	0	0	200.0
24.2	3.157	-0.001	-0.001	0.001	3.26	3.265	-0.0	0.0	0	0	0	0	0	0	0	0	200.0
24.3	3.171	-0.001	-0.001	0.001	3.274	3.279	0.001	-0.003	0	0	0	0	0	0	0	0	200.0
24.4	3.189	0.0	0.002	-0.001	3.286	3.293	0.001	-0.003	0	0	0	0	0	0	0	0	200.0
24.5	3.201	-0.001	-0.001	-0.002	3.306	3.306	-0.001	-0.003	0	0	0	0	0	0	0	0	200.0
24.6	3.215	-0.001	-0.001	-0.001	3.32	3.318	-0.001	-0.003	0	0	0	0	0	0	0	0	200.0
24.7	3.228	-0.001	0.002	0.001	3.335	3.335	-0.001	0.001	0	0	0	0	0	0	0	0	200.0
24.8	3.25	0.0	-0.0	0.001	3.35	3.348	-0.0	0.0	0	0	0	0	0	0	0	0	200.0
24.9	3.265	0.002	-0.0	-0.001	3.362	3.367	-0.0	-0.003	0	0	0	0	0	0	0	0	200.0
25.0	3.279	0.0	-0.0	-0.001	3.376	3.384	-0.001	-0.003	0	0	0	0	0	0	0	0	200.0
25.1	3.292	0.0	-0.0	0.001	3.394	3.401	-0.0	0.0	0	0	0	0	0	0	0	0	200.0
25.2	3.309	0.002	0.002	-0.001	3.411	3.414	-0.0	0.0	0	0	0	0	0	0	0	2	200.0
25.3	3.323	0.0	-0.0	0.001	3.428	3.428	0.001	-0.001	0	0	0	0	0	0	0	0	200.0
25.4	3.337	-0.001	0.002	-0.002	3.437	3.44	0.001	-0.001	0	0	0	0	0	0	0	0	200.0
25.5	3.349	0.0	0.001	-0.002	3.452	3.457	0.001	-0.001	0	0	0	0	0	0	0	0	200.0
25.6	3.367	0.0	-0.0	-0.001	3.469	3.473	0.001	-0.002	0	0	0	0	0	0	0	0	200.0
25.7	3.386	0.002	0.002	-0.002	3.484	3.486	-0.001	0.001	0	0	0	0	0	0	0	0	200.0
25.8	3.399	0.0	-0.0	-0.001	3.498	3.503	-0.001	-0.001	0	0	0	0	0	0	0	0	200.0
25.9	3.413	0.002	-0.001	-0.002	3.513	3.516	0.001	0.001	0	0	0	0	0	0	0	0	200.0
26.0	3.431	0.0	-0.0	-0.002	3.528	3.53	-0.001	0.001	0	0	0	0	0	0	0	1	200.0
26.1	3.443	0.0	-0.0	-0.001	3.542	3.547	0.001	-0.001	0	0	0	0	0	0	0	0	200.0
26.2	3.46	-0.001	0.002	-0.002	3.555	3.557	-0.001	-0.001	0	0	0	0	0	0	0	0	200.0
26.3	3.477	-0.001	0.002	-0.002	3.569	3.574	0.001	-0.001	0	0	0	0	0	0	0	0	200.0
26.4	3.489	0.002	-0.001	0.001	3.585	3.589	-0.0	0.002	0	0	0	0	0	0	0	0	200.0
26.5	3.504	-0.001	-0.0	0.001	3.601	3.601	-0.001	-0.001	0	0	0	0	0	0	0	0	200.0
26.6	3.516	0.0	-0.0	-0.002	3.618	3.616	-0.001	0.001	0	0	0	0	0	0	0	0	200.0
26.7	3.533	0.0	-0.0	-0.001	3.63	3.63	0.001	0.001	0	0	0	0	0	0	0	1	200.0
26.8	3.548	0.002	0.002	-0.001	3.647	3.645	-0.001	0.001	0	0	0	0	0	0	0	0	200.0
26.9	3.56	0.0	-0.0	-0.001	3.662	3.667	0.001	0.001	0	0	0	0	0	0	0	0	200.0
27.0	3.575	0.0	-0.0	0.001	3.674	3.684	-0.001	-0.001	0	0	0	0	0	0	0	0	200.0
27.1	3.592	0.002	-0.0	-0.001	3.689	3.696	0.001	0.001	0	0	0	0	0	0	0	0	200.0
27.2	3.606	-0.001	-0.001	-0.002	3.703	3.71	-0.002	-0.002	0	0	0	0	0	0	0	0	200.0
27.3	3.621	-0.001	-0.001	-0.002	3.718	3.726	-0.001	-0.001	0	0	0	0	0	0	0	1	200.0
27.4	3.636	0.0	-0.0	0.001	3.738	3.74	-0.001	-0.001	0	0	0	0	0	0	0	0	200.0
27.5	3.65	-0.001	-0.001	-0.002	3.75	3.755	0.001	0.001	0	0	0	0	0	0	0	0	200.0
27.6	3.665	-0.001	-0.001	-0.002	3.762	3.767	-0.001	-0.001	0	0	0	0	0	0	0	0	200.0
27.7	3.677	-0.001	-0.001	-0.002	3.779	3.782	0.001	0.001	0	0	0	0	0	0	0	0	200.0
27.8	3.692	0.002	-0.001	0.001	3.794	3.799	-0.001	-0.001	0	0	0	0	0	0	0	0	200.0
27.9	3.709	-0.001	-0.001	-0.002	3.809	3.811	-0.001	0.001	0	0	0	0	0	0	0	0	200.0
28.0	3.724	0.002	0.002	-0.001	3.824	3.826	0.002	0.002	0	0	0	0	0	0	0	0	200.0
28.1	3.735	-0.001	0.002	-0.002	3.838	3.84	0.001	-0.001	0	0	0	0	0	0	0	0	200.0
28.2	3.751	0.0	-0.0	-0.002	3.853	3.855	-0.001	-0.001	0	0	0	0	0	0	0	0	200.0
28.3	3.77	0.0	-0.0	-0.001	3.865	3.87	0.001	-0.001	0	0	0	0	0	0	0	0	200.0
28.4	3.781	0.001	0.001	-0.002	3.879	3.884	-0.001	0.001	0	0	0	0	0	0	0	0	200.0
28.5	3.797	0.0	-0.0	-0.001	3.892	3.899	-0.001	-0.003	0	0	0	0	0	0	0	0	200.0
28.6	3.814	-0.001	-0.0	-0.001	3.908	3.911	0.001	0.001	0	0	0	0	0	0	0	0	200.0
28.7	3.828	-0.001	0.002	0.001	3.926	3.928	-0.001	-0.003	0	0	0	0	0	0	0	1	200.0
28.8	3.844	0.002	0.002	-0.001	3.943	3.945	0.001	-0.001	0	0	0	0	0	0	0	0	200.0
28.9	3.859	0.0	-0.001	-0.002	3.955	3.962	0.001	0.001	0	0	0	0	0	0	0	0	200.0
29.0	3.872	-0.001	-0.001	-0.002	3.972	3.975	-0.001	0.001	0	0	0	0	0	0	0	0	200.0
29.1	3.887	-0.001	-0.001	-0.002	3.984	3.989	0.001	-0.001	0	0	0	0	0	0	0	0	200.0
29.2	3.904	-0.001	-0.001	-0.002	4.001	4.001	-0.001	-0.003	0	0	0	0	0	0	0	0	200.0
29.3	3.919	0.0	-0.0	-0.001	4.017	4.022	-0.003	0.0	0	0	0	0	0	0	0	0	200.0
29.4	3.934	-0.001	0.002	0.001	4.031	4.033	0.001	0.001	0	0	0	0	0	0	0	0	200.0
29.5	3.948	0.002	-0.001	-0.002	4.049	4.053	-0.0	-0.003	0	0	0	0	0	0	0	0	200.0
29.6	3.963	-0.001	-0.001	-0.002	4.061	4.063	-0.0	0.0	0	0	0	0	0	0	0	0	200.0
29.7	3.977	-0.001	-0.001	-0.002	4.075	4.08	-0.001	0.001	0	0	0	0	0	0	0	0	200.0
29.8	3.989	-0.001	-0.001	-0.002	4.089	4.092	0.001	-0.001	0	0	0	0	0	0	0	0	200.0
29.9	4.007	-0.001	-0.0	-0.001	4.104	4.107	-0.001	-0.001	0	0	0	0	0	0	0	0	200.0
30.0	4.019	0.0	-0.0	-0.001	4.116	4.121	-0.001	-0.001	0	0	0	0	0	0	0	0	200.0
30.1	4.034	0.0	0.002	-0.001	4.131	4.136	-0.001	-0.001	0	0	0	0	0	0	0	0	200.0
30.2	4.051	-0.001	-0.001	0.001	4.149	4.154	-0.0	0.0	0	0	0	0	0	0	0	0	200.0
30.3	4.068	0.002	-0.001	0.001	4.165	4.165	-0.001	-0.001	0	0	0	0	0	0	0	0	200.0
30.4	4.08	-0.001	-0.001	-0.002	4.177	4.18	-0.001	0.001	0	0	0	0	0	0	0	0	200.0
30.5	4.094	-0.001	-0.001	-0.002	4.189	4.196	0.001	-0.002	0	0	0	0	0	0	0	0	200.0
30.6	4.11	-0.001	0.002	0.001	4.207	4.212	-0.001	-0.001	0	0	0	0	0	0	0	1	200.0
30.7	4.124	-0.001	0.002	-0.002	4.219	4.221	-0.001	-0.001	0	0	0	0	0	0	0	0	200.0
30.8	4.139	0.0	-0.0	-0.002	4.241	4.238	-0.001	-0.001	0	0	0	0	0	0	0	0	200.0
30.9	4.151	0.0	-0.0	-0.001	4.253	4.253	-0.001	0.001	0	0	0	0	0	0	0	0	200.0
31.0	4.168	-0.001	-0.001	-0.002	4.271	4.271	-0.0	0.0	0	0	0	0	0	0	0	0	200.0
31.1	4.182	-0.001	-0.001	-0.002	4.283	4.285	0.002	0.002	0	0	0	0	0	0	0	1	200.0
31.2	4.195	0.002	0.002	-0.001	4.299	4.297	0.001	-0.001	0	0	0	0	0	0	0	0	200.0
31.3	4.211	-0.001	0.001	-0.002	4.312	4.315	-0.0	0.0	0	0	0	0	0	0	0	0	200.0
31.4	4.226	-0.001	-0.001	-0.002	4.326	4.329	-0.001	-0.001	0	0	0	0	0	0	0	0	200.0
31.5	4.241	-0.001	-0.001	0.001	4.341	4.346	-0.001	-0.001	0	0	0	0	0	0	0	0	200.0
31.6	4.256	0.0	-0.0	0.001	4.356	4.361	0.002	0.0	0	0	1	0	0	0	0	0	200.0
31.7	4.271	0.0	-0.0	-0.001	4.37	4.375	-0.001	-0.001	0	0	1	0	0	0	0	0	200.0
31.8	4.287	0.001	-0.001	-0.002	4.385	4.387	0.001	-0.001	0	0	5	0	0	0	0	0	200.0
31.9	4.302	-0.001	-0.001	0.001	4.401	4.404	0.001	0.001	0	0	4	0	0	0	0	0	200.0
32.0	4.319	0.002	-0.001	0.001	4.416	4.418	0.001	0.001	0	0	56	0	0	0	0	0	200.0
32.1	4.332	0.0	-0.0	-0.001	4.431	4.434	-0.001	-0.001	0	0	52	0	0	0	0	0	200.0
32.2	4.344	-0.001	0.002	0.001	4.446	4.448	-0.001	-0.001	0	0	211	0	0	0	0	0	200.0
32.3	4.361	0.002	-0.001	-0.002	4.464	4.464	-0.0	0.0	0	0	412	0	0	0	0	0	200.0
32.4	4.375	0.002	0.002	-0.002	4.478	4.476	-0.0	0.0	0	0	694	0	0	0	0	0	200.0
32.5	4.39	-0.001	4.241	-0.002	4.492	4.49	-0.001	0.001	0	0	1	0	0	0	0	0	200.0
32.6	4.402	-0.001	4.383	0.001	4.504	4.504	-0.002	-0.002	0	0	0	0	0	0	0	0	200.0
32.7	4.42	0.002	4.395	-0.001	4.519	4.519	0.001	-0.001	0	0	0	0	0	0	0	0	200.0
32.8	4.434	-0.001	4.412	-0.002	4.531	4.531	-0.001	-0.003	0	0	0	0	0	0	0	0	200.0
32.9	4.449	-0.001	4.427	0.001	4.545	4.548	-0.002	-0.002	0	0	0	0	0	0	0	1	200.0
33.0	4.464	0.0	4.442	-0.001	4.563	4.561	-0.001	-0.001	0	0	0	0	0	0	0	0	200.0
33.1	4.481	0.0	4.454	-0.001	4.578	4.58	-0.001	0.001	0	0	0	0	0	0	0	1	200.0
33.2	4.495	0.004	4.471	-0.002	4.592	4.597	0.001	-0.001	0	0	0	0	0	0	0	0	200.0
33.3	4.51	0.002	4.485	-0.002	4.612	4.61	-0.001	0.001	0	1	0	0	0	0	0	0	200.0
33.4	4.527	0.002	4.5	0.001	4.622	4.629	-0.001	-0.001	0	0	0	0	0	0	0	1	200.0
33.5	4.538	-0.001	4.516	-0.002	4.639	4.644	-0.003	-0.003	0	2	0	0	0	0	0	0	200.0
33.6	4.552	0.0	4.527	-0.001	4.654	4.658	0.004	0.001	0	0	0	0	0	0	0	0	200.0
33.7	4.568	-0.001	4.544	-0.002	4.669	4.671	0.002	0.0	0	0	0	0	0	0	0	0	200.0
33.8	4.583	-0.001	4.556	-0.002	4.685	4.685	0.001	0.001	0	0	0	0	0	0	0	1	200.0
33.9	4.598	0.0	4.571	0.001	4.697	4.7	0.001	0.001	0	3	0	0	0	0	1	2	200.0
34.0	4.615	-0.001	4.588	0.001	4.712	4.715	-0.001	0.001	0	10	0	0	0	0	6	0	200.0
34.1	4.63	0.0	4.605	-0.001	4.729	4.729	-0.001	-0.001	0	4	0	0	0	0	6	2	200.0
34.2	4.645	0.0	4.62	-0.001	4.741	4.739	0.001	-0.003	0	46	0	0	0	0	32	3	200.0
34.3	4.662	0.0	4.632	-0.001	4.756	4.756	0.001	0.001	0	36	0	0	0	0	52	6	200.0
34.4	4.674	0.0	4.649	-0.001	4.771	4.771	-0.001	-0.001	0	161	0	0	0	0	162	14	200.0
34.5	4.685	-0.001	4.663	-0.002	4.785	4.785	-0.001	0.001	0	297	0	2	0	0	409	25	200.0
34.6	4.7	-0.001	4.678	0.001	4.8	4.802	-0.001	0.001	0	579	0	0	0	0	863	55	200.0
34.7	4.718	3.074	4.691	-0.001	4.815	4.815	4.566	0.001	0	1957	0	1	0	0	1	103	200.0
34.8	4.729	4.7	4.703	-0.002	4.832	4.829	4.7	-0.001	0	0	0	1	0	0	0	267	200.0
34.9	4.751	4.722	4.724	-0.002	4.842	4.842	4.717	-0.001	0	0	0	9	0	0	0	475	200.0
35.0	4.762	4.735	4.742	-0.002	4.859	4.859	4.734	-0.001	0	0	0	14	0	0	0	1224	200.0
